{"9803": -6.600141814701524e-07, "1646": -2.0025551774221845e-06, "13910": -3.347492462169251e-06, "6886": -9.922787401537667e-07, "7549": -3.0556030595471708e-06, "2450": 0.00022475158795607676, "3179": 0.0002640362122687686, "1109": -5.168072037310554e-06, "8396": -4.180432626733795e-06, "1164": -5.685209883570516e-06, "9779": -4.306207137862569e-06, "9682": -2.016842545119357e-06, "5744": -3.7558834001384342e-06, "5726": 0.0001589169013336985, "8293": -3.2100293102559373e-06, "4722": -6.7879159785424805e-06, "2632": -9.314549514350489e-07, "2130": -8.936297862542991e-06, "6157": -3.735176229821653e-06, "12033": -7.814381262911718e-06, "6839": 5.336250535121431e-05, "4327": 0.0012627098652719336, "273": 0.000311044250930425, "2461": -1.4652178324897312e-06, "10971": -1.2620191527313797e-06, "6768": 0.00011106288556821113, "6893": -1.0828823853923482e-06, "9868": -2.64488145250495e-06, "429": -1.371365017016195e-05, "13297": -2.0840147393048625e-06, "2726": -2.650700910590281e-06, "1178": -4.56447491118318e-06, "837": -5.300174537177944e-06, "16843": -4.946147187439391e-07, "16218": -1.6675162424194973e-06, "4450": -8.568108609701567e-07, "2268": -5.7088459627063255e-06, "6912": -2.683968675199142e-06, "14102": -8.859943168779307e-07, "6801": 0.0005375924317526059, "15580": 0.0006427357163650758, "7960": -2.3110296434658334e-06, "4841": -3.1615993904300577e-06, "9801": -3.2048106203528902e-06, "7846": -2.261428737907165e-06, "8274": -2.8868245988803397e-06, "427": -4.012904066829895e-06, "596": 0.00028744296989008584, "15379": -3.8099486317533435e-06, "7962": -3.47657773972218e-06, "1473": 0.00022422529146148642, "12045": 6.0748536160487266e-05, "6689": 0.0006810363375607884, "588": 0.00022047387135353474, "2984": -1.7116519972105772e-06, "6906": -2.0053399415112937e-06, "16562": -1.7678930236000215e-06, "15396": -3.330311638912311e-06, "781": 0.00016776409841234922, "16322": 0.0004430436457689916, "6778": -4.915618227769791e-06, "10327": -1.813173063581359e-06, "4362": -1.3292063563526961e-06, "6524": 0.00071494096144443, "17116": -1.5864213726448131e-06, "12079": -4.970676901783701e-06, "6411": 0.00024158986992193059, "4977": -1.6604314634945647e-06, "8750": -1.0806137285386138e-06, "15720": -3.802558324980039e-07, "12043": -7.1200174741274896e-06, "16612": -7.730960327555504e-07, "365": -1.2998589729835995e-06, "4947": -5.826415355763147e-06, "554": 0.00013367676364730977, "7648": -5.348022832917789e-06, "3710": -3.403867849829852e-06, "1853": 0.0003387886667747911, "15389": 0.00028846125861236406, "6758": 0.0003918232627174997, "786": 0.00039217653305274766, "1517": -4.264737664009235e-06, "4795": -4.378469137977081e-06, "2995": -1.622913260454487e-06, "7295": -6.005128909930542e-06, "5051": -7.159772251425692e-07, "8601": -7.406714972112237e-07, "612": -7.66947355665182e-06, "1728": -2.7171561865576785e-06, "4045": 0.0003445473794498071, "2435": -5.17126737460421e-06, "13909": -7.123324125050443e-06, "16829": -9.997365259264255e-07, "27c729f0-df24-11e7-a154-d8872abe5c26": -8.556472773737332e-06, "12620": -4.122574093074078e-06, "10794": -4.114912423905515e-06, "7640": -3.4462585575868963e-06, "3030": -1.7609256599115696e-06, "8127": -1.8727761729753238e-06, "6837": 6.032742669388122e-05, "1174": -3.5187558994725655e-06, "4710": 0.00016846874830338273, "18285": -9.882617813055876e-07, "2452": 0.00023222511773976303, "11173": -1.3465968841358527e-06, "2062": -5.693938309012014e-06, "10591": -1.1959831968981881e-06, "15832": -3.624833342583221e-06, "9217": -1.3448304932251687e-06, "9800": -2.017820907157842e-06, "450": -3.695562307998367e-06, "7353": 0.00017856687391128309, "13294": -3.4096927448559354e-06, "1575": 0.00019949122261150767, "6952": -7.95876090778592e-06, "13295": -2.5639115275176643e-06, "11113": -8.809938495825435e-07, "3893": -2.2959621398255887e-06, "7871": -1.696977942899778e-06, "3785": -3.281702701042977e-06, "7890": -7.460980012316173e-07, "16848": -2.488368827388594e-06, "10597": -3.82766153276415e-07, "3606": -4.599244081104726e-06, "1778": -3.207296053074466e-06, "4328": 0.0024123413921852523, "16519": 0.0, "13912": -4.806372336527159e-06, "14345": -9.473997477986336e-06, "17594": -1.3970435022347609e-06, "13906": -1.0345917068786458e-05, "15728": -3.80255673470345e-07, "4927": -2.7470203971507036e-06, "1918": 0.00034556215071692326, "1161": -1.934637317328161e-06, "10344": -4.616550883409486e-06, "2860": -2.6349369187659573e-06, "356": 2.450321588127734e-05, "1652": -2.963496184467169e-06, "1119": 0.00016212267202533488, "4107": 0.00035982533672928755, "308": -5.81983041367597e-06, "3343": -3.9283718433173316e-06, "17714": -1.0846310730495865e-06, "1656": -3.4698929899975044e-06, "15625": 0.0006585969288752143, "4206": -3.4651248778250643e-06, "8256": -2.7223818620649327e-06, "12946": -2.918152498208243e-06, "6924": -1.0035577409706022e-06, "7119": -2.2280254011642425e-06, "7090": 0.00010842983473369597, "15380": -2.987139253809422e-06, "9727": -2.262872756373563e-06, "7055": -1.3195495055200837e-06, "8089": -2.2340354782810352e-06, "2973": -3.4744385759060063e-06, "13913": 0.00022861854723001704, "12054": -4.612078365425139e-06, "4794": -3.4822951663897187e-06, "8853": -6.979527815220795e-07, "7586": -2.903544963325834e-06, "4799": -5.248643759388457e-06, "2693": 0.00028593727794015396, "8428": -4.228643520012685e-06, "625": 0.00023173752494682395, "7076": 0.0011817606923053307, "3102": -3.843156126826103e-06, "1456": -6.962469194489695e-06, "7424": -1.2940901109364084e-06, "8173": -2.1956344914701148e-06, "4248": -5.743155685916094e-06, "4276": 0.0006976471303723826, "12897": -1.0278929545349161e-06, "946": -7.374656157393701e-06, "1801": 0.00025685741243898594, "6718": -5.7222312747494604e-06, "17696": 0.00013057606181231924, "7452": -1.2847662496198537e-06, "12614": 0.00027865085186157696, "1536": -5.676015014418841e-06, "3892": -3.7143499497072145e-06, "2479": -6.162370303274968e-06, "8001": -1.355096970005131e-06, "12895": -3.1674843318924248e-06, "2992": -3.638139548849924e-06, "2502": -1.933390550557328e-06, "1978": 0.00010734207796874878, "7866": -1.4787530770884638e-06, "15819": -9.355908222295146e-07, "4678": -6.512338077020436e-06, "4374": -1.3959048927934033e-06, "7118": -3.6776811022774154e-06, "6131": -1.4371998666675947e-06, "7177": -1.4846452762509888e-06, "7125": -6.444166442365538e-06, "6915": -7.923444585310885e-07, "2613": -1.543863765730479e-06, "4986": -1.1190344063319138e-06, "10792": -3.9571518220853326e-06, "1516": 0.0001058491701314547, "2424": 0.00018759458322504974, "1689": -1.9995564385046987e-06, "2671": -1.1306507807164853e-06, "17718": -1.1015469862732072e-06, "11964": -7.00862356368699e-07, "14415": -8.359193508441326e-07, "9337": -1.0411692622256017e-06, "799cb390-83ed-11e7-a88c-f13cc4eab13e": 6.927938005244191e-05, "11863": -1.9921665094528146e-06, "15225": -9.695747399657283e-07, "2501": -2.8603499713375533e-06, "8257": -1.7328467568831258e-06, "7649": -2.6471826837705787e-06, "8604": -2.2552994680567313e-06, "6812": -7.111502466052021e-06, "1129": -3.948360962409955e-06, "4785": -2.055938556463577e-06, "6132": -2.324123275951708e-06, "3477": 0.0002010113807159527, "7550": -1.3473987680954113e-06, "856": 9.441145326287516e-05, "4814": -6.76673145291808e-06, "3228": 0.00019956429618301578, "10943": -6.749926515796041e-07, "11023": -8.735920064144946e-07, "11336": -6.087439170464494e-07, "7585": -2.770939549375335e-06, "2496": -2.6765940254341126e-06, "7619": 0.00013773901816794957, "11761": -2.5015049479042216e-06, "1600": -3.7051977518667727e-06, "6930": -7.941294338784041e-06, "2487": -4.3582441861114645e-06, "7294": -5.368387508958531e-06, "8118": -1.7737683068112239e-06, "14428": -1.5689505056529439e-06, "15374": 3.886999113987936e-05, "16938": -9.835296810904555e-07, "6859": 6.67852163592888e-05, "14103": -8.859940414632245e-07, "8223ff18-d538-11e5-80ff-b0086ec8f4cd": 0.0017481838648264387, "903": -3.826927452047986e-06, "16859": -2.7689596521211603e-06, "12012": 0.00031445745735098025, "15584": -8.242228650365714e-06, "15394": -2.3976009582064977e-06, "6767": 0.0002966170925072721, "7030": -6.491009925966175e-06, "9699": -2.4894350868059525e-06, "7401": 0.00020546210226736616, "5410": -1.1421719285148837e-06, "11081": -1.0333890099838618e-06, "1662": 0.00025307546599179063, "11774": -8.164943627126229e-07, "11225": -1.511662773195675e-06, "1461": 0.000267173759934882, "7101": 0.0003058939103502791, "12682": 0.0001259359464148094, "4337": -1.1986618662959131e-05, "8608": -1.2632100108545448e-06, "5900": 0.00011788311200774746, "10499": -1.6501344696360702e-06, "1096": -3.4733051100302628e-06, "15621": -3.891050631962329e-06, "556": 0.00048627278173440057, "9300": -1.0527617947469535e-06, "12264": 0.00012604759263384608, "7346": 0.0005703629705139677, "11221": -5.860817214015452e-07, "15408": 7.248532059910099e-05, "4438": -7.260473307240778e-06, "3163": -4.335622467447177e-06, "7495": -1.4688933088951225e-06, "10593": -1.5186512693104648e-06, "4692": -4.7474393835247715e-06, "814": 0.00027112607125824914, "1478": -5.851727593920409e-06, "16533": -1.1543023298765355e-06, "17579": -2.9991482246679446e-06, "11963": -7.287558390129291e-07, "11192": -6.049151630490851e-07, "15370": 9.010941659043125e-05, "8644": -1.4179128867381504e-06, "3241": -2.3642447603645176e-06, "542": -1.351360647625154e-05, "7744": -1.996794697310798e-06, "6783": -3.394449319191232e-06, "6856": -9.328318306675706e-07, "8909": -3.4703862631024004e-06, "11416": -8.551759761750698e-07, "9321": -1.184346850243025e-06, "619": -7.378583636380846e-06, "17981": -4.3882560070604627e-07, "10209": -1.7877100445411e-06, "16961": -6.74953472893452e-07, "4786": -3.2779235673837708e-06, "1962": -2.4597790825311107e-06, "3115": -5.085967828474469e-06, "1935": -3.3771644002055707e-06, "8558": -2.4120440231073856e-06, "6932": -6.529450122841494e-06, "552": 0.0003142398470667556, "11186": -4.408829909333013e-07, "10850": -1.5219641969241605e-06, "558": 6.458016767821362e-05, "17712": -1.084631358845604e-06, "8377": 0.00022831665974603843, "9597": -1.0401237749701653e-06, "9809": -1.5008797819506608e-06, "4907": -3.0730670701729553e-06, "11353": -1.110945916042116e-06, "7064": -5.10211641130681e-07, "8095": -7.22977502256409e-07, "1627": -2.8297756945633846e-06, "10354": -2.9307323913822605e-06, "6699": -3.999679318967544e-06, "7058": -4.726897781250908e-07, "4441": -2.3581002645962286e-06, "1851": -9.89997073039191e-06, "15889": -4.437551523729501e-07, "293": -2.536836526056674e-06, "953": 0.00015597789001443182, "7451": -5.06819551051879e-07, "8305": 0.00029642963470273077, "6872": -4.258878290740902e-06, "8627": -1.5636082814524075e-06, "2199": 0.0002322164733814532, "9811": -2.6240826447705647e-06, "2419": 0.00022050433410831003, "3021": -5.354201011997543e-07, "5886": 0.00035345694982973167, "4289": -3.757876951792319e-06, "11147": -1.8749272466100609e-06, "2784": 0.0003800258497390851, "2403": 0.0001890275194110108, "2587": -1.834561514676272e-06, "15675": -4.246112810178923e-06, "6123": -1.9860515056439874e-06, "2139": 0.0001631811657845263, "8343": -1.6244267348982849e-06, "15401": 1.0010657686755372e-05, "12626": -1.3289973911622569e-06, "1876": -1.1911600693954304e-06, "1773": -1.5147975744339553e-06, "1558": 0.0002481956510653952, "7111": -4.812600251299477e-06, "9209": -1.539520936268031e-06, "578": 0.000302163991009432, "3832": 0.00019473731774548674, "3181": -6.1185895939899875e-06, "8859": -2.6499978208683385e-06, "834": -7.063744087339524e-06, "6805": -4.0052457611855685e-06, "3691": -6.401099383018811e-06, "1083": -4.087152090902713e-06, "2249": 0.0006136027560207478, "4751": 0.000459524226908868, "7445": -4.763075816279684e-06, "3456": -5.572929929104763e-06, "885": -6.537605211479331e-06, "2486": 0.00016861879851611704, "7967": -9.401936898516962e-06, "8101": -2.3485580117308184e-06, "3100": 0.00012042291388692457, "553": 0.0002958410233984825, "275": 0.00020255207296572121, "8304": 0.00023322943545408468, "7007": -2.6809171865268557e-06, "6933": -9.520012883272367e-07, "3665": 0.00027736876842681307, "18293": -8.23397685072733e-06, "3173": -5.121543900660582e-06, "16823": -1.8806930559754905e-06, "9189": -1.684726822000224e-06, "6771": -4.653567645782586e-06, "1772": -8.095084266848791e-06, "5232": -1.8349360123431404e-06, "1842": -6.37344594835511e-06, "2876": -2.522132918315545e-06, "2113": -3.1686603966955434e-06, "7323": 0.00038978532287562464, "6692": 0.000640359497817481, "4724": -2.635985554437558e-06, "2706": -1.6953757161438144e-06, "8086": -1.5940472423744624e-06, "17977": -5.547912611371569e-07, "1115": -2.3343749250427036e-06, "8135": 8.235155118997505e-05, "12890": -4.379812106598526e-06, "9190": -1.532234467629244e-06, "1540": -3.0948302726981763e-06, "2982": -3.939909870109977e-06, "1157": -1.528998941669509e-06, "2721": -2.476011905147208e-06, "10295": -1.2752653260004651e-06, "2528": 0.00018034824396536672, "4860": 0.0013361179690484426, "4855": 0.0021460226788844244, "5796": -3.1514033541003994e-06, "16513": -9.741433989742111e-07, "430": 0.0001545007952535676, "18042": -6.020656296106496e-07, "6836": 0.00012077701777196028, "15862": -2.3481577656361508e-06, "15180": -7.824269233622846e-07, "546": 0.0010413294429460437, "15588": 0.00012128835828074815, "4806": 0.0004774344253230983, "7732": -5.397378036192367e-06, "4324": 0.0009185032960175215, "314": 0.00022796111609277997, "306": -2.8846134955100907e-06, "9027": 0.00014138011673697106, "328": 0.0001364991830681175, "2289": -2.4124708130316224e-06, "5857": 0.0003407579082071262, "14430": -1.264577054130066e-06, "8811": -6.974758800036906e-07, "1521": -2.5515676888212683e-06, "6772": 0.00010707489855858935, "3216": -4.231439337888842e-06, "8367": -1.5979377638302033e-06, "6624": -1.0396311384623695e-05, "4965": -2.21012711203804e-06, "12038": -5.2601877471307274e-06, "12036": -4.68867721496635e-06, "12621": -3.492182660368842e-06, "9876": -1.0420770543406414e-06, "5676": -4.078230660467515e-06, "6693": 0.0006298912731209074, "7460": -2.47567393038906e-06, "10756": -9.210724096333995e-07, "6868": 0.0003670744554323887, "7570": -1.198612549305099e-06, "9813": -3.6508442340258807e-06, "925": 0.00011386369171556746, "9188": -1.6081846631911464e-06, "9325": -1.232554818492406e-06, "14360": -1.2514972845916808e-06, "16819": -1.2030286004969235e-06, "10007": -1.0532738796347622e-06, "10908": -1.2711863770445849e-06, "1956": -3.5029069009879763e-06, "12625": -3.6586650132115937e-06, "6769": 0.0002638379001048502, "2192": 0.0001665764598232092, "4861": -5.9931191471940616e-06, "586": 0.0004117286976510693, "7902": -2.690526756557022e-06, "2963": -1.1345756663450833e-06, "8045": -2.17336817137084e-06, "3642": 0.0002465664354122809, "18104": -3.747194453377244e-06, "3430": -3.5055114998850173e-06, "790": 0.00029497040157926667, "15286": -5.255162613755793e-07, "16511": -5.679161707216221e-07, "1904": -5.585623185683426e-06, "16787": -3.6489423961632855e-06, "6842": 0.00028375345384908763, "9837": -3.0406754623864483e-06, "11340": -1.1083569652489145e-06, "1697": -4.163026471358571e-06, "12025": 0.00019993254672287926, "808": 0.00012123876273531056, "1818": 0.00019441063700678896, "1665": 0.00048699462708885223, "7867": -1.0767189499375423e-06, "3705": 0.0001673316337636868, "16776": -1.2202695571751857e-06, "15822": -3.5912392478153838e-06, "7700": -1.2999645007839824e-06, "3392": -5.739335776498545e-06, "1724": -5.109398795184281e-06, "7264": 0.00020408906060703796, "16607": -7.777210185711672e-07, "10296": -6.441150892958192e-07, "13908": -4.907583390760222e-06, "15615": -1.471716020785875e-05, "1744": -4.265977551930085e-06, "1973": -6.4857499658152644e-06, "8303": 0.00018569230338546952, "4924": -3.256224836100762e-06, "9013": -1.5956580215220487e-06, "17753": -2.583848431137687e-06, "2777": -3.2805440786941416e-06, "9665": -4.12209629840519e-07, "15590": -4.375024947708078e-06, "6843": -6.400850918938957e-06, "1738": -5.652924528986666e-06, "3201": -1.1813819262580595e-06, "16156": -8.6787230989953e-07, "8258": -4.437023899921057e-06, "12058": -3.4106061648042103e-06, "5734": -3.83037469739513e-06, "4047": 0.00019414689555000286, "7077": 0.0005214574993099507, "6957": 0.00018368622443391307, "6766": -5.624701122830155e-06, "15450": -1.0755630899032526e-06, "4791": -6.068778826298496e-06, "2237": 0.00020540854934852454, "14349": -1.5265190585717024e-06, "8948": -6.064639322185734e-06, "14174": -5.838954613657026e-07, "4714": 0.00015852404260195324, "3484": 0.0003316716506524478, "15882": -9.768875367407329e-07, "12615": -4.503274001210052e-06, "17761": -5.862926271111119e-07, "12008": 0.0013820031597642816, "4283": 0.000395797865879498, "16793": -3.816819166453651e-06, "4707": -5.002180293437987e-06, "622": 0.0003484653423972802, "3312": -6.243333650826716e-06, "17716": -7.383503833440642e-07, "1758": -3.1635390356179416e-06, "17756": -2.864892746181837e-06, "1596": -5.614176262465467e-06, "14173": -1.6885046588218479e-06, "6909": -4.848079927476032e-06, "2710": 0.00022676007349033966, "7646": -6.3679036700142475e-06, "9556": -2.7513549034635405e-06, "4993": -2.715096202750587e-06, "7920": -3.508390993045065e-07, "4508": -7.649962720172898e-06, "14416": -1.1407354175164891e-06, "2843": -1.6202034886126768e-06, "928": 0.0005887564267379219, "389": 0.00015503365248125867, "7577": -2.3859043413421372e-06, "7742": -2.135246682558714e-06, "6860": -4.009376308562284e-06, "7499": -1.2834319186261132e-06, "2406": 0.0001558743489663327, "931": 0.00011220717032395571, "3314": -2.8219270884979533e-06, "472": -1.6949322281468485e-06, "9609": -2.593722354374473e-06, "4043": 0.00023192899090555984, "2064": -5.44469989314174e-06, "7332": -1.9397718741311464e-06, "7469": -8.966498908399188e-07, "3760": 0.0005463198400639111, "11207": -1.0028018521909821e-06, "15589": -8.933312868050526e-07, "2855": -1.438259256736121e-06, "10356": -6.379183693047403e-07, "9008": -1.5497401336363417e-06, "496": 0.00023249262331767853, "17699": -5.156034823298294e-06, "2102": -3.7140744948029836e-06, "14694": -2.3065834149898904e-06, "3615": 0.00047946335500283227, "597": 0.0002099939968957357, "9862": -2.2040593072890785e-06, "7662": -3.1042037683190015e-06, "970": 0.0002743136341187799, "15410": 4.4307500330621336e-05, "5977": -4.026129040073081e-06, "15402": 1.3282609278779306e-05, "5971": -2.6109074556691335e-06, "294": -1.824987404598552e-05, "3461": 0.000374144082094228, "7221": -4.698110334363352e-06, "7701": -2.445882959274539e-06, "1564": 0.00010305557703597713, "3454": 0.00020810204555773333, "4801": -7.812646986173087e-06, "14691": -1.8467224648762778e-06, "3457": 0.0002618918177621797, "408": 0.0018380262667727577, "2948": -3.4329063009517726e-06, "17745": -2.3992740911754224e-06, "8883": -9.715297830790319e-07, "606": 0.00014281390894569813, "6706": -7.270663574938791e-07, "2896": -3.2808498498410185e-06, "2091": 0.00018224979401947004, "2477": -3.282642140653912e-06, "10070": -1.2066259290663586e-06, "6864": -9.119012102325456e-07, "2121": -3.314766014400791e-06, "2545": -3.147770344636009e-06, "16807": -2.7378970054633432e-06, "638": 0.0006373676235086164, "1825": -4.5515543435781845e-06, "1490": -3.023386038636138e-06, "3175": 0.000540973502293923, "10353": -1.0128680238364436e-06, "4911": -6.837792235591689e-06, "2945": -2.700361080506412e-06, "16805": -1.9021857043700903e-06, "7789": -1.5492682156171242e-06, "1606": 0.0004915534757468834, "2498": -2.741163943089518e-06, "4957": -2.4357174849667743e-06, "14367": 0.0001941433597775553, "4187": 0.00026710719406127794, "3467": -4.475617473340623e-06, "6530": 0.0003521023578788305, "2890": -3.180871185879954e-06, "371": 0.0001398327996394341, "6722": -1.5558041348522604e-06, "12053": -2.816898623910499e-06, "18020": 0.0, "310": -1.5951845070815729e-06, "2579": -1.966355665883438e-06, "2517": -6.983757651819776e-06, "16181": -9.966921786151131e-07, "14393": -1.6318679230398348e-05, "1610": 0.00025871777864415474, "6825": -4.100243322884938e-06, "18075": -3.320320534959349e-06, "2946": -3.3624765710550074e-06, "3986": -5.2105172890339294e-06, "1938": -1.805630874522717e-06, "2981": -3.5732425582484402e-06, "4395": -1.0071407133846652e-06, "4340": 5.251046459958314e-05, "498": -1.0203667518138193e-06, "8189": -2.002003993973866e-06, "10586": -3.8276620030620163e-07, "14424": -2.284084573157352e-06, "2131": -6.298717164883216e-06, "1914": -4.703111151916037e-06, "2400": -5.7771886804522435e-06, "15852": -2.0423833384147836e-06, "14361": -1.030686087626879e-06, "875": 0.0004146002330095345, "11699": -5.470771543350377e-07, "8637": -1.9231170703443834e-06, "7097": 0.0004628008189345254, "2634": -1.2618692970389625e-06, "11772": -8.744242410082966e-07, "15705": -1.077869806709464e-06, "8412": -2.818266288966699e-06, "2817": -2.324546529816223e-06, "6702": -4.968731139138456e-06, "12048": 4.971943601454295e-05, "11894": -1.770986230780357e-06, "6762": 0.00030258956201611884, "908": 0.0007956012047941901, "10977": -2.123987685502802e-06, "6992": 0.0005902226170759046, "271": 0.001023123426389853, "2448": 0.0003646579109642281, "3583": -4.343664274959616e-06, "9874": -1.5243753891232295e-06, "7417": -2.2855366134061096e-06, "630": 0.00019610900785884026, "10358": -1.902584430556667e-06, "799": -6.654803085189133e-06, "4715": -6.6955984789828925e-06, "4723": -2.1940865612924336e-06, "7484": -1.7264098566963338e-06, "12265": -2.79054072341156e-06, "6871": -4.970169216003662e-06, "2907": -2.0094329743767693e-06, "3245": -3.2091375300800856e-06, "2004": -3.1873201349668398e-06, "1957": -2.44223347143587e-06, "10622": -1.1019206024146002e-06, "3033": -6.2677098846066865e-06, "2699": 0.00025943786933677726, "18298": 0.00013703207001793845, "7297": -5.654785290594256e-06, "1169": -4.850380112435327e-06, "15850": -1.9398159378940206e-06, "13448": -1.042154713221629e-06, "14392": -3.101918577003376e-05, "1117": -2.9838337167576236e-06, "6764": -1.3326365093506001e-05, "3453": -3.710419190691668e-06, "9859": -1.2799788403107619e-05, "3472": 0.00038957681790513667, "4944": -0.00020859945112450162, "1880": -3.1129225849430827e-06, "14351": -7.362903471295303e-06, "14368": 6.643111201075155e-05, "18054": -1.0326407241834381e-06, "9192": -2.2274075767974836e-06, "2645": -1.7154944255682917e-06, "16809": -8.156460572501198e-07, "16597": -1.286851203072286e-06, "595": 5.471481977965598e-05, "1894": -4.739358457133246e-06, "7419": -1.7553635790265548e-06, "15387": 2.893213365392966e-05, "5795": -1.9587024680229402e-06, "435": -1.7137201316433498e-06, "7142": -4.752272040554189e-07, "1452": -3.386622790994044e-06, "9029": -9.37110808731764e-06, "1593": -7.819097457299647e-06, "5970": -3.5267830553957773e-06, "6095": -2.7585457699818554e-06, "4970": -1.7100000153631155e-06, "17580": -4.187782703872908e-07, "3769": 0.00037180443762835315, "9560": 2.718874656377495e-05, "1463": -2.0806059958475122e-06, "2115": -2.3755786678464544e-06, "2525": 0.0005227089918278608, "8444": 0.00019763943145027226, "1594": 0.0002489526641319709, "2481": -4.0473501430580655e-06, "1191": 0.0004733502506745141, "18257": -1.7675844322780812e-06, "6711": -4.3922978684651945e-06, "3540": 0.0006148973275419104, "12613": -1.4467140836609699e-06, "890": 0.00041496982295477047, "7849": -3.9381198237834277e-07, "555": 0.0002649344315571364, "1979": -6.7498532016712045e-06, "9032": 0.0002482351748131736, "12002": -1.0053800749894387e-05, "3462": 0.00033760864283004536, "11261": -1.835440033169712e-06, "17729": -3.09558377902177e-06, "6774": -8.304342510049122e-06, "8103": -1.0248369905610082e-06, "6852": 3.6813309852316956e-05, "1939": -1.3183219669733173e-06, "9277": -2.756569178105196e-06, "12059": -1.054144130884296e-06, "14946": -1.3657919818705004e-06, "5848": -1.4991118970186968e-06, "463": -1.6142793091701456e-06, "10390": -6.235612095180664e-07, "7712": -1.5929464828700835e-06, "9684": -3.0316220190626896e-06, "4992": -5.325138532447164e-06, "2965": -4.1053471350184635e-06, "3802": 0.0004974414270633387, "6891": 0.00015312753888160633, "3435": 0.00022940561304109417, "15439": -1.3014784863645332e-06, "1948": -3.90501513280775e-06, "6875": -3.955581610539675e-06, "1875": -3.111377493096534e-06, "3436": -2.969323717970864e-06, "2480": -3.983024273140364e-06, "17584": -1.0024384848325988e-06, "2654": -1.5734182230422828e-06, "7126": -4.308912341414021e-06, "7858": -1.8618466613336254e-06, "17587": -7.956135009799236e-07, "12022": 0.0005725499437214978, "6939": -3.5968596377263763e-06, "400": 0.0007178719929559303, "3478": -4.446801539991075e-06, "14421": -9.226852925605403e-07, "10968": 0.0, "3143": -5.11714141282393e-06, "7790": -1.3663674122868652e-06, "9605": -1.5478221560394196e-06, "9780": -1.433495530162736e-06, "12078": -4.63375843006844e-06, "1641": -0.00023657496048490662, "3130": -4.256184352916032e-06, "7094": 0.00020821430415111637, "4706": -5.97792685501282e-06, "4980": -2.043473719831341e-06, "374": 0.0004300080361752956, "16812": -1.417537922035409e-06, "269": 0.0001225089511413143, "15854": -3.055219614461189e-06, "8279": -1.7826157764130448e-06, "17757": -7.419463432767124e-07, "4956": -2.8308313993598972e-06, "7639": -3.859090254567538e-06, "6403": 0.0005231873530094007, "4803": -8.704661942577049e-06, "14366": -1.0399098329806342e-05, "6874": -5.181299135752331e-06, "8275": -1.506292210403951e-06, "11212": -1.5936405323846946e-06, "592": -7.205793521250554e-06, "15381": 7.0955451882238455e-06, "8849": -9.878935088760384e-07, "3626": -2.368885185401373e-06, "10503": -5.194870421200114e-07, "4191": 0.00020087117178105478, "6931": -3.962132845532501e-06, "5721": -8.172247202491754e-06, "1814": -1.6544646938521324e-06, "3418": -3.5301410570665065e-06, "16782": -8.018959374309054e-07, "1751": 0.0008821642686422252, "270": 2.5145949574776036e-05, "10606": -2.962339597795091e-06, "14427": -1.3082303010208547e-06, "6759": -5.248799023866041e-06, "10978": -2.182185852347833e-06, "6832": 0.00014911440166192407, "12263": 0.00012984966233123198, "8273": -1.1590247142817104e-06, "7080": -3.434884724869895e-06, "4514": -9.057661318513531e-06, "11677": -1.0078275982934364e-05, "4820": -1.4311813143407687e-05, "9554": -3.555561029130484e-06, "1833": -2.9645594811783888e-06, "587": 0.0003355797693833419, "11102": -1.434928815570389e-05, "6901": -3.650453154950678e-06, "3544": 0.00013032243664201024, "562": 0.0009818713668781332, "3019": -1.233429180494309e-06, "4146": -2.5282038366867037e-06, "8363": 0.000501221140757126, "6879": -5.0981783985532255e-06, "406": 0.0006471269409859806, "1080": -6.441370423765798e-06, "9933": -1.1900143884764858e-06, "6704": -1.0584758594147646e-06, "13911": 7.904647805455086e-05, "6430": -2.922143455777961e-06, "16845": -7.464801504096882e-06, "13446": -1.398710002657996e-06, "313": -3.1631116820425376e-06, "2535": 0.000288221733914007, "1897": 0.0003151207157107262, "360": 0.00021408179824379433, "4832": 0.0010882941670137172, "2922": -2.028634172964463e-06, "7167": 0.0002707394533147687, "1670": -4.537465549201418e-06, "1760": 0.00024652265369846764, "7643": -3.565255390864082e-06, "2970": -2.6661226407717264e-06, "1081": -3.803819537657294e-06, "3451": 0.00017940299689449832, "774": 6.614589054840962e-05, "10612": -3.827660088632864e-07, "8662": -6.629197097646817e-06, "614": -5.384229011066192e-06, "3458": -4.618884157468855e-06, "4339": 0.00044384421644857487, "9702": -2.0490857704931344e-06, "7502": -1.073113852739524e-06, "7546": -1.1618632718143221e-06, "7540": -2.52604627407852e-06, "2148": -6.31375428391652e-06, "7772": -1.852325625187471e-06, "8244": -2.5558352675028435e-06, "14400": 9.2824893538918e-05, "393": -1.1622133764268511e-05, "2216": -3.642968068700755e-06, "7108": -2.342717146176487e-06, "15404": -3.740367660634378e-06, "4784": 0.0002632460671665695, "4913": -6.096883829030589e-06, "17221": -2.3811483042891074e-06, "7668": -4.159652503345676e-06, "3752": 0.00020208688983798151, "6425": -4.274688909414003e-06, "7466": -1.2978422367330204e-06, "16785": -7.796781543965429e-07, "3889": -2.97138662854006e-06, "1523": -1.3007379935816177e-06, "419": -3.461686224639396e-06, "12247": -8.720399467606417e-07, "7112": -2.707204533538904e-06, "843": -4.728982081914057e-06, "5880": -6.116712586401895e-06, "18299": -8.4783116847982e-06, "2049": 0.0001364074807500816, "6575": 0.0005640153106068334, "8137": -1.5051956900794801e-05, "274": -2.9086091004525553e-06, "2677": -3.0567530588964064e-06, "2979": 0.00026030482803194585, "831": 0.00015461049206236903, "4792": -5.511876353899271e-06, "8166": -2.9341264488917976e-06, "11805": -1.2449051507156814e-06, "2752": -2.839592829432171e-06, "9729": -9.07752097300963e-07, "8854": -8.84534750577327e-07, "2818": -1.607921367517558e-06, "6935": -4.483233057540711e-06, "12013": 0.00029771990581487054, "9802": -2.7498318363769997e-06, "9875": -1.4379490616955805e-06, "1105": -5.43530522310068e-06, "9295": -7.634349921047141e-07, "7554": -1.13240750243338e-06, "12067": 8.002282799368226e-05, "7421": -2.103284569926262e-06, "4778": -5.075902420535012e-06, "1134": -2.3762173930053114e-06, "16107": -3.569731042011138e-06, "2898": -2.9932607526276088e-06, "12616": -2.4484258052595674e-06, "3829": 0.00025741223320987794, "8812": -1.1546878401812425e-06, "8004": -2.3381084839678788e-06, "6794": 0.00013246951593143713, "9302": -6.467449383151339e-07, "4938": 0.0002865531786430168, "12056": -2.9745744478166156e-06, "16342": -7.488621868321666e-07, "5820": -4.1630992880784225e-06, "14007": -2.5774813027632652e-06, "2476": -2.039305534651725e-06, "9205": -1.6687842423126515e-06, "1602": -2.3503390923344583e-06, "7738": 0.00015931200840753912, "2947": -2.49844484119528e-06, "1484": -6.703800767839677e-06, "1809": 0.0003583148992046491, "2627": -2.278524287097618e-06, "11177": -1.359418906802668e-06, "7875": -9.866819874533318e-07, "6841": -4.346246163292962e-06, "4933": 8.887714159569057e-05, "605": 0.00014038204554280175, "7883": -1.9886485613043523e-06, "10064": -1.6610712633351988e-06, "15372": -4.597255218320232e-05, "7958": -1.7884082347698796e-06, "1891": -5.058911967257589e-06, "8072": -1.7512085575770445e-06, "4941": 8.887503186456102e-05, "9271": -1.5615749943201392e-06, "3632": -1.0869987318727356e-06, "6917": -3.6651157684647813e-06, "3123": -4.571517114643519e-06, "3682": -6.027379586093988e-06, "5817": -4.935693992015907e-06, "2989": -2.722478655267325e-06, "16611": -7.730964016757121e-07, "1557": -3.02305056464752e-06, "9855": -3.3936344064151305e-06, "7798": -1.1762809718341419e-05, "15371": 0.0001687594547324559, "17695": -1.6543420007639971e-06, "4229": -3.522290115279442e-06, "2538": -6.867993073408537e-06, "11145": -9.647640581068175e-07, "14356": -1.980839468606163e-06, "7699": 0.00015603259648087575, "14353": -4.861019021969455e-06, "7641": -5.160370812164295e-07, "18262": -8.108409366400405e-06, "2796": -1.1775841508990105e-06, "2616": -1.1327693874578692e-06, "1063": -4.2997506289993286e-06, "789": 0.0002284409222125685, "8424": -1.896728435554787e-06, "6741": 0.000250289765714211, "1126": -2.1086863000279293e-06, "9704": -1.2286549261207585e-06, "6760": -2.675888993055072e-06, "16624": -6.862638095653602e-07, "1857": -4.0613632417787915e-06, "9734": -1.69603874852914e-06, "2719": -1.8559264150135111e-06, "17744": -7.641003475727106e-07, "9777": -2.4816466589853955e-06, "1145": -3.450154883919021e-06, "8192": -1.182262612568574e-06, "1754": -3.4211254350966577e-06, "12055": -2.8575035015829743e-06, "2485": 0.0002579935776395322, "9309": -6.136317717691797e-07, "14405": -4.2560946877632066e-07, "6885": -1.5165665840775032e-06, "7446": -7.791549766878082e-07, "6763": 3.841953372703759e-05, "1494": -4.0260178911619305e-06, "7222": 0.00021882485992866124, "567": 0.00128359533723315, "616": 0.00023705986714582473, "2909": -9.226763252411196e-07, "439": -7.986454597767083e-07, "17743": -3.899480953776164e-07, "1756": 0.0004068219928661226, "2468": -4.5500648062987285e-06, "2540": -4.121079650409403e-06, "1538": -3.2937702168090017e-06, "16157": -2.1804999442437354e-06, "6958": 0.00038885432279020407, "14692": -9.298863817422017e-07, "7702": -4.037475923819708e-06, "369": -4.846209881847148e-06, "4960": -1.9235792559525414e-06, "7504": -1.9668842549926684e-06, "2720": -1.2898164809513918e-06, "1071": -3.455959243988367e-06, "3858": -4.563484238182308e-07, "2542": -5.023566571601774e-06, "16936": -2.6256680085189713e-06, "6779": -3.891043085584389e-06, "6844": -1.8594123994770144e-06, "1625": -2.5872832673996566e-06, "2405": -5.862290149855025e-06, "610": -1.476047687208248e-05, "18303": -4.05142904861431e-06, "2423": 0.00046492223010897207, "9804": -1.0226284425496028e-06, "12919": -4.609851804242491e-06, "17740": -8.682833505390871e-07, "9810": -4.041419849337804e-06, "14358": -1.0615814418402417e-06, "6827": -7.2024145319239835e-06, "6883": -2.235971406105636e-06, "4990": -6.1875141033125565e-06, "1608": 0.00039011101919011733, "8259": -9.669564643000378e-07, "2229": -6.23710467199963e-06, "4968": -9.107358745050146e-07, "4676": -7.168127850905526e-06, "4209": -2.3657904052946786e-06, "4979": -2.9513520854236765e-06, "11970": -1.2784423887172177e-06, "7454": -1.6003660874525448e-06, "599": 1.64395858870879e-05, "6936": -1.0288397731647695e-06, "1158": -2.4039234359419802e-06, "12619": -5.178928208940726e-06, "6133": -9.081532115493918e-07, "8016": -6.961805250484638e-07, "4985": -2.1290242155333323e-06, "6892": -1.941621999914541e-06, "6410": 0.0005306039426277156, "4705": -5.62234279717457e-06, "2516": -1.4802034206994156e-06, "7321": -4.112569839574898e-06, "347": 0.00019674163425314009, "11194": -1.1444554002351018e-06, "8006": -2.689188933000159e-06, "7859": -2.0145070531905053e-06, "11034": -6.786302130671798e-07, "5773": -2.221340350592014e-06, "16841": -1.094989886538826e-06, "12681": 0.0001287080869608518, "18255": -1.6418661083355506e-06, "1841": -3.7726637897842684e-06, "9031": 0.00021569967581530825, "7642": -1.743286973517221e-06, "8290": -1.8737075621442854e-06, "2460": -2.4604954511393675e-06, "4771": 0.00010631898748922222, "7104": -5.465726942276332e-06, "9970": -1.471302613115954e-06, "11354": -9.935651654058834e-07, "10844": -1.2384195454225754e-06, "4755": 0.00030292164421637154, "1501": -4.804834785312466e-06, "11011": -6.870862552464295e-07, "1584": 0.0002351115831479167, "9187": -5.607178839619989e-07, "9285": -6.95042083000622e-06, "7743": -5.107423202131184e-07, "15452": -3.468282123200011e-06, "6691": 0.00038727503660313683, "401": 0.000788606558710428, "14370": 0.0001321285991174989, "4719": -2.2368948405211176e-06, "8170": -3.7716697384145578e-06, "577": 6.620416743644071e-05, "543": 0.0009396638530018201, "2475": 0.00010694298554507092, "345": 0.0003655840119741579, "3210": 0.00012413357369999578, "7588": 0.00037107194189959705, "6128": -5.029621980101602e-07, "571": -4.722971758958291e-06, "8380": 0.0002154832354738895, "6124": -1.8029346764071547e-06, "7322": -4.369387337035009e-06, "17727": -1.068126055895457e-06, "7434": -2.6550137618823524e-06, "12032": 0.00020056233628853477, "589": 0.00011892483298887131, "14364": -9.52307654018642e-07, "6147": -1.5814129973870227e-06, "9320": -2.2992956883731123e-06, "6796": -1.9543462385961404e-06, "14413": -4.671236943591021e-06, "14422": -1.1407348042212975e-06, "4373": -1.7947086185143932e-06, "1124": 0.0002972667508059039, "9017": -2.5994925166056512e-06, "412": -3.686833315572463e-06, "846": 0.00023650182508289786, "5697": -6.132643016333847e-06, "2980": -3.4920631810143934e-06, "4702": 5.668505605285888e-05, "8081": -1.2215338643097812e-06, "17701": -5.903514895364296e-06, "8871": -4.4532007674092574e-07, "12617": 0.00021800830196178848, "2930": 0.00026177937931526444, "1186": 0.0002094353044154152, "12034": 7.573905285157072e-05, "2090": -3.038598785569506e-06, "2455": 0.00015683400344643854, "18288": -1.4384846885207919e-06, "561": 0.00012614959411047302, "6535": 0.0003235508285443572, "8133": -7.915907662479292e-07, "5825": -4.530563293095473e-06, "563": 0.0007895326765692621, "2702": 0.0002742960453211357, "3311": -2.920756391195023e-06, "602": 3.8088121266001864e-05, "11182": -1.6614016024855866e-06, "9620": -2.344859586191671e-06, "9728": -4.35931731539281e-06, "2443": -6.365309740999618e-06, "7461": -1.4326069715899782e-06, "4720": -2.912834579429309e-06, "12031": -5.866187892353223e-06, "1800": -2.772142729125951e-06, "7872": -1.0843847499467097e-06, "2238": -2.982131832321335e-06, "7548": -2.6431699339008645e-06, "11263": -8.678749477049108e-07, "1578": 0.00027536329298593877, "8015": -4.178335612465145e-07, "3229": 0.00037226236065539253, "4323": 0.0014354314469153654, "1121": -2.8632301871803696e-06, "14384": -4.388107531733111e-06, "974": 0.0001582436950133081, "4379": -2.1682647991792156e-06, "8855": -1.2262203394774324e-06, "15689": -5.148461283831126e-06, "6725": -6.285505656493894e-06, "5758": -3.6533179859203675e-06, "6625": -5.867797901188723e-07, "2622": -1.5279869229074154e-06, "9593": -3.1240542949956706e-06, "9333": -1.0915004809589174e-05, "12612": -3.0080596366059273e-06, "10352": -2.2372660053649886e-06, "3316": -4.994771840077173e-06, "2037": -6.454242155907877e-06, "637": 0.001274330513607828, "353": -7.406105126840325e-06, "1631": 0.00027323543262286004, "6870": -4.745071313980519e-06, "3231": 0.00013314822204245824, "7379": -3.4192653118457667e-06, "14110": -8.859934906990376e-07, "6755": -4.487890751732539e-06, "3485": 0.00046272235402147646, "1953": -4.497066917776646e-06, "6096": -1.5006684039626933e-06, "15834": -1.6722391375222168e-06, "8317": -4.1026665998759695e-06, "9329": -6.501540747268192e-07, "2851": -2.3339210953535064e-06, "9308": -9.610457998351503e-07, "6840": 0.0004716681447118298, "2048": -4.942782273604525e-06, "1491": -6.24508594863983e-06, "1700": -3.820916904724601e-06, "65c13275-0ae6-11e6-ae99-33bf931174b5": 0.001935583488416715, "2701": -3.3283863682211072e-06, "14404": -3.4250792518574775e-06, "2692": -2.0074604666142537e-06, "4013": -1.2426121573012158e-05, "2853": -2.202725633222927e-06, "5707": -2.66371332579053e-06, "10194": -4.473920951363325e-07, "7997": -5.297072306063587e-06, "1780": -3.495034239008496e-06, "6895": -1.5093038611764745e-06, "467": -1.7149520075544931e-06, "4380": -1.8529675089031967e-06, "4940": -7.954061791099346e-06, "7671": -1.8044044063512844e-06, "15880": -9.794334411937486e-07, "8179": -4.909936954888127e-07, "1562": -2.243763546370369e-06, "8867": -4.4532024195494123e-07, "2881": -2.0320754044047243e-06, "1525": 2.528314061331349e-06, "3496": -4.806594157961678e-06, "17980": -4.3882577357262385e-07, "7110": 0.0002916801462812001, "2770": -3.5639258214569424e-06, "7728": -6.192840076300916e-06, "4338": 0.0010353093427965777, "3169": -5.672626539743271e-06, "6102": -1.8104032352061696e-06, "6126": -1.7367093281905146e-06, "4919": -3.328371943319545e-06, "7976": -1.8276795710228447e-06, "17577": 0.00043716264893697826, "1522": -2.7719999574625537e-06, "6849": -1.5309347432784862e-06, "4843": 0.0005003891546353288, "9853": -3.3662079920315327e-06, "11670": 0.0001382913770279799, "6746": -5.5953980950754615e-06, "7121": -3.3850315857521436e-06, "1529": -3.2960565581611966e-06, "2854": -2.0397346761951455e-06, "2434": -3.1202188752805536e-06, "2601": -3.0148719000158775e-06, "11946": -3.788705969120805e-06, "337": 0.0005128539371004868, "6717": 0.0002564215828027711, "15411": -2.8995158131894758e-06, "380": -3.960278276728331e-06, "16683": -7.516070681425469e-06, "3394": 0.0001424153740919955, "3139": -6.015385078175584e-06, "626": 0.0003561703172209451, "17698": -8.885995951941092e-07, "1940": -3.367434340199385e-06, "4257": -3.3269342717656557e-06, "10946": -1.4096064105325548e-06, "2119": -4.442743601937813e-06, "4769": 0.00017411854984866222, "3116": -4.055788537839432e-06, "14426": -1.4262933886404619e-06, "813": 8.887312645408791e-05, "1886": 0.00016153707752415749, "1789": -5.480930858890295e-06, "8177": -2.87251466186646e-06, "6858": -1.911802622877168e-06, "3018": -1.2832691671946462e-06, "4864": 0.0011291361631448654, "5732": 0.00045026042076774976, "17120": -2.728424765573387e-06, "9272": -4.533746341772986e-07, "4800": -4.385296771823343e-06, "8214": -1.1583643801838908e-06, "8932": -2.2977121949825557e-06, "14348": -8.285969285686235e-07, "11115": -8.592814729262425e-07, "8704": -4.59436198102245e-06, "2194": -6.645688730791624e-06, "7429": -1.546888861548018e-06, "15441": 0.0005023005467465797, "361": -7.83537508391955e-06, "6821": 0.0001369127013203595, "2523": -2.8764101674603593e-06, "548": 0.0008992852844219534, "2633": -1.0211774557044467e-06, "4862": -6.683871893636162e-06, "2532": -5.0141916743907866e-06, "2932": -4.533778921723297e-06, "1692": -3.788051645187201e-06, "7843": -1.378719234729412e-06, "7045": 0.00018935885954443174, "17576": 0.00025546193535102164, "2433": -4.222657450313703e-06, "4507": -7.224926715098757e-06, "3749": 0.0005858019730158211, "18038": 0.0, "14896": -1.2181775681194854e-06, "1567": -6.6905270998128305e-06, "6853": -2.4108444675794607e-06, "12014": -1.0836799777094003e-05, "4331": -7.5323553582953326e-06, "2471": 0.00031197648320318503, "1775": 0.00029447068559380847, "1805": -5.943829349446499e-06, "3144": -5.505083871982164e-06, "7861": -1.6728701914960198e-06, "10986": -3.798193796910166e-06, "9726": -4.622743874447795e-06, "9026": -2.9814793055713622e-06, "16550": 0.0, "3319": 0.0002829555589550619, "584": 0.00033432615811266627, "364": -3.3288422873289723e-06, "15849": -1.0410690183268543e-06, "6726": -3.333927871121877e-06, "16779": -5.307373564711415e-06, "391": 0.0018568775181405075, "4917": -3.971305767110924e-06, "3791": -5.2185495772643165e-06, "15172": -1.493602701396837e-06, "15181": -1.531363086732995e-06, "14695": -2.6313022233133533e-06, "4750": 0.0005325188911404512, "1127": 0.00028667845936004404, "6923": -3.596217932553205e-06, "15831": -5.655490700709169e-07, "16682": -6.614541812688203e-07, "1120": -2.2989827126868543e-06, "7216": -2.167875691413627e-06, "1819": -1.1670710869221857e-06, "7175": 0.00027607867932579247, "6781": -3.9979094736022305e-06, "1881": 0.0005541682722116094, "12004": 3.65349021247076e-05, "1507": 0.00028006406650660606, "833": 0.0002792143718139783, "11888": -1.2322926569071122e-06, "13299": -3.531600214411988e-06, "549": 2.5136075789320652e-05, "2698": -3.840967943721527e-06, "11769": -1.4619021470162513e-05, "860": 0.00013350082810514044, "4447": 0.00024803749201138074, "3483": 0.0003287281273038492, "5968": -2.682847068560653e-06, "4858": 0.00011791969052849889, "right": 0.0196306366605321, "1910": -3.287618413266381e-06, "6920": -9.47405629181523e-07, "1730": -3.5286370971875604e-06, "1609": 0.0004121197476337124, "12060": -4.256099073148939e-07, "17128": -2.693022510660563e-06, "631": 0.0008889048195866165, "14343": -9.232057860178389e-06, "15676": -3.9226124398190405e-06, "5227": -5.2381592804192895e-06, "2913": -1.21193967004382e-06, "3564": -8.227864071388558e-06, "2866": -2.0381134156005418e-06, "7936": -1.579836325129772e-06, "4439": -3.4533281344042243e-06, "8100": -2.2251891824772563e-06, "12030": -7.528560750898835e-06, "15613": 9.666591936009142e-05, "9261": -1.0156685914046827e-06, "8132": -7.893518018545845e-07, "8047": -1.2633652089547796e-06, "7352": 0.00022513107991401784, "5895": 9.531937349990773e-05, "17720": -1.90627798918712e-06, "944": 0.00048292428331646477, "2493": -3.502036823659937e-06, "15738": -3.802555147316267e-07, "14408": -6.2524170800234e-06, "7067": -5.14288960984126e-06, "11789": -8.265252896568164e-07, "4153": -3.5389834592608334e-06, "4925": -4.181995094493751e-06, "8034": 0.0, "8299": -4.7237374375525207e-07, "6887": -3.110096101753343e-06, "7584": -7.793243466258902e-07, "4946": 0.00015328166192177172, "6867": 0.0003515242835159722, "884": 0.0003053146616553923, "14363": -4.6632207597360565e-06, "4513": 0.00018959853350039468, "3845": -9.896398207904408e-07, "1493": 0.00034329957312879457, "6539": 0.00026561038104912146, "9860": -4.710005031122638e-07, "7096": -2.32135977525697e-06, "2553": -4.496282074167831e-06, "12269": -8.482644771368003e-06, "7719": 0.00018952893253003364, "8936": -2.6332944033804076e-06, "10497": -2.7418141617766993e-06, "3167": 0.00034023571026161795, "3855": -2.7882772201151707e-06, "16314": 3.3308663190536396e-05, "6701": 0.0004292776920858201, "15820": -3.3215790833398497e-06, "16552": -4.3882688383546887e-07, "2462": -4.644590410040896e-06, "583": 0.00019188613235702988, "10604": -3.8276605588818966e-07, "7224": -4.259514575503811e-06, "2780": -2.055769993000658e-06, "6732": -1.1874938913963935e-06, "3243": -1.8590561552689607e-06, "4443": -7.209962682266182e-07, "6869": -1.4570401148360323e-06, "324": 0.00011749553130251662, "9716": -1.7876136087005018e-06, "2709": -3.355121419843627e-06, "16810": -7.037349786550677e-07, "2416": 0.0002212093587258745, "8332": -8.256995995939505e-07, "3440": -4.034893211200593e-06, "5891": 0.00011342026719050097, "2563": -2.4668776105968172e-06, "2224": -6.225320637526828e-06, "7536": -2.571145467819215e-06, "962": -8.138955048114398e-06, "3402": -4.532883864555847e-06, "12271": 0.0004290170976282004, "1192": -2.203247251597971e-06, "598": 7.01206240068418e-05, "9863": -9.301719598469303e-07, "7122": -4.554115029686003e-06, "15529": -6.266955068544963e-07, "15164": -7.1823435745366374e-06, "1907": 0.0002248693222186294, "18278": -8.506484974207321e-06, "4802": -4.235761990694287e-06, "2490": -5.326447491197838e-06, "7881": -2.4107799345354207e-06, "4290": 0.0002626633989828309, "4281": 0.000282636425095557, "8813": -1.1775068124492731e-06, "2223": 0.0002188554921012069, "2740": -2.5694365518603628e-06, "9328": -1.0198788455005041e-06, "7618": -2.2344985534087596e-06, "3481": 0.0004311197432857587, "12064": -5.982516312509555e-06, "8040": -9.786831393313813e-07, "7056": -7.328504956679558e-07, "635": 0.00024121702082605033, "7123": -3.262812968460651e-06, "600": 0.0010823262443391563, "2522": -2.275225194572473e-06, "2231": -4.759740068020268e-06, "1913": 0.0002504570735385826, "2427": 0.00010945441269995525, "15376": -4.247567845056218e-06, "14172": -1.2994224596820731e-06, "1166": -6.700285595244852e-06, "4321": 0.0008586725824202505, "3804": -3.1541750505334217e-06, "1702": -7.368175361248461e-06, "636": 6.495236286433003e-05, "16606": -9.741343965232912e-07, "2736": -7.67351593519563e-07, "9628": -1.1414179384295942e-06, "2278": 0.00013039432536035767, "6897": 0.00011972034106762493, "2511": -2.029884268756983e-06, "967": 0.0004390208332430738, "4775": -9.052153855057832e-06, "8243": -1.2803395421983492e-06, "2944": -3.7231630129103087e-06, "17162": -1.699747880707845e-06, "4804": -1.078325984768592e-05, "1834": -3.656602700892532e-06, "7624": -1.5065057123975347e-06, "14010": 0.0003405878516071924, "2439": -3.454265399909163e-06, "2503": 0.00033300663251571396, "11080": -1.03843903823133e-06, "918": 0.00021668396937506596, "5782": -3.607107405618709e-06, "7544": -2.2687618518083168e-06, "16603": -1.101255154039048e-06, "14417": -8.359191490544375e-07, "818": -5.272805147532295e-06, "1712": -2.1140346312193874e-06, "7420": -1.9501469292879358e-06, "14898": -1.027488499762679e-06, "4943": -5.741953609903984e-06, "1922": -5.807017836388306e-06, "10340": -3.962181230360069e-06, "2791": -1.484357663211742e-06, "10059": -1.816670609496586e-06, "8852": -4.45320802222164e-07, "2527": -1.296290121947029e-06, "6929": -2.115459936492047e-06, "2652": -2.476430376544954e-06, "7392": -4.727866081512368e-06, "6703": -4.911682233783374e-06, "12727": 0.00022417724869219094, "1451": 0.0001376134976188544, "2118": -4.9896926402305635e-06, "7391": -5.41139446197137e-06, "9600": -3.127254792501676e-06, "4251": -4.3057840066810095e-06, "7716": -2.373702163133182e-06, "16942": -1.2961878710798626e-06, "907": 9.941550462550854e-05, "17582": -9.42076201631302e-07, "2996": -1.692366274449412e-06, "10974": -8.623016241151944e-07, "3723": 0.0004132879282461015, "4752": 0.0004886026349666787, "10058": -1.2203800571926553e-06, "3032": -2.6627617326501954e-06, "3475": 9.440668868007566e-05, "4768": 0.0001884699369862103, "1943": -8.721031487400052e-07, "11026": -5.240122834778369e-07, "4674": -3.71412383697096e-06, "7292": 0.00016749701965092467, "1856": 0.00013001646502476202, "15385": 5.846493951771484e-05, "16323": 0.00042760271705310365, "11167": -8.603100646458349e-07, "74316eb4-e434-11e5-9960-3a6525a6fa29": 0.0018644714852501113, "15672": -5.549578593541367e-06, "15390": 6.937832314638975e-05, "2630": -1.9400829189527117e-06, "e9c196a1-4ae6-11e5-bc68-8620ffdeb79c": 0.008071678054181748, "4404": -4.990976586509651e-07, "2408": -5.678843142943433e-06, "1104": -3.993051680142097e-06, "6742": -2.6667270406688067e-06, "8204": -1.7199420425233735e-06, "7426": -1.1277456488121528e-06, "11195": -1.0540580948012743e-06, "6790": -3.930052310066103e-06, "15715": -1.109992188559347e-06, "3608": -1.8979314605015437e-06, "2395": -1.011704645114802e-05, "551": 0.000291802287463833, "8410": -3.2025436972369814e-06, "4931": 0.00018854112680961464, "3777": -2.5252577552598824e-06, "17589": -1.073134595782082e-06, "15395": -3.1819804752569485e-06, "8907": -1.1655949508783842e-06, "632": 0.0034632528429155217, "2819": -1.754162714440139e-06, "2798": -2.448073884578742e-06, "1151": 0.00024391597521628952, "1868": -2.50300044530488e-06, "4836": 0.00024241327494900757, "4823": -1.1285320823523837e-05, "9278": -2.1542577363306595e-06, "16542": -9.880451163022784e-07, "3464": 0.00037616332649007613, "11083": -1.674118708334404e-06, "4711": -5.819460853419727e-06, "4920": -6.5758734388157965e-06, "7886": -7.701058603905792e-07, "3104": 0.00021145330784589454, "6708": 0.0005398288732952885, "3539": -6.057105001048484e-06, "372": 0.00019281063082878864, "9612": -1.872957072811898e-06, "9830": -1.1156065247400515e-06, "4259": -3.2726431203489275e-06, "11435": -1.1853428978838217e-06, "16535": -6.979043073359848e-07, "4680": -4.107346266321335e-06, "2092": -4.085408839526815e-06, "7437": -1.797738587489549e-05, "8073": -1.4252522197742016e-06, "4249": 0.00015087638090313858, "15837": -4.078019483166804e-06, "4330": 0.00041263330358594564, "1865": -2.9988533981439002e-06, "4815": 0.00022472060931311654, "9717": -6.928102821356979e-07, "3977": -4.944944676085839e-06, "1862": -5.5821821979888095e-06, "1850": 0.0002003892434481935, "7860": -1.3868308071585015e-06, "2607": -1.48508610327554e-06, "1116": -2.907443765247699e-06, "15861": -3.1089028375127146e-06, "7103": -2.644490719927712e-06, "2768": -1.417935944751901e-06, "3495": -5.768828080440587e-06, "7942": -7.029804428665784e-07, "6753": -1.8656613902529657e-06, "4835": 0.000921271475064195, "6848": -4.460999780552817e-06, "3441": 0.00020138795338102699, "296": 0.0001332271045943951, "7626": -2.2125133410602507e-06, "8629": -1.1232814020030072e-06, "8423": -2.48530632146471e-06, "10236": -1.6421113128255031e-06, "9020": -2.3130587325179896e-06, "9630": -2.844855092922939e-06, "358": -6.559674497639383e-06, "633": 0.002991096388953303, "9035": 0.00018315004368561083, "5233": -2.8715300025165945e-06, "8075": -1.6225098782211889e-06, "603": 0.00013233428707475103, "1188": -4.318610677627468e-06, "10355": -1.339298536453265e-06, "1683": -5.730070750353603e-06, "8272": -6.70481702128559e-07, "8425": -3.1852557462696707e-06, "1561": 0.0003309915456767405, "12016": 6.54205075111831e-05, "2391": 0.00016482915180491504, "4401": -1.9231930359848836e-06, "1896": -3.869573515129167e-07, "11896": -7.935904148964149e-07, "6810": -7.660010408960006e-06, "4162": -1.941395910781954e-06, "6155": -4.478868101493242e-06, "7713": 0.0003164490855006468, "15586": 0.000955046810494635, "7533": -1.1266705882509974e-06, "9618": -1.4464527213868685e-06, "628": 0.0005921753440104276, "1951": 0.00015216799142825333, "2884": -2.393754633907349e-06, "8096": -2.101664412810876e-06, "474": -5.550746926370042e-07, "7402": -4.863217618079303e-06, "2783": 0.00029539460265324554, "949": 0.00019801929205094003, "3479": -4.023453800005354e-06, "7710": -1.36875000509079e-06, "6798": -3.737378100136577e-06, "1464": -2.4321270435594715e-06, "17758": -2.4692275930696456e-06, "7892": -1.802095852256505e-06, "580": 0.00011768175314021672, "3812": -3.645668990468109e-06, "1533": 0.00031911745920905647, "7578": 0.00040968223986628837, "2512": -4.151657176040621e-06, "394": 0.0004920681066164572, "8351": -2.668810487658231e-06, "457": -1.6358299374636615e-06, "4834": 0.0002011976449270392, "2536": 0.0002178221163097683, "2259": -5.356103241688213e-06, "769": 0.00017116518278895021, "2707": -1.5422062721841857e-06, "6723": 9.988474625274162e-05, "1471": -6.053727870391197e-06, "5790": -3.4798087788232364e-06, "8946": -1.6807375681288162e-05, "7457": -1.1099132116716085e-06, "4808": 0.00025410187410733546, "14412": -1.438078039392724e-06, "12019": 0.0006080335864486866, "14383": -1.1079534096581813e-06, "301": -2.374122645500653e-06, "7796": -1.2014183765017318e-05, "10909": -9.777388224112804e-07, "9815": -3.3283182976317444e-06, "3023": -1.2434583648423795e-06, "6736": 8.577595205833424e-05, "1784": -4.0140951096096225e-06, "1462": -3.6390770735854774e-06, "7664": -3.2161031619387564e-06, "7005": -2.4466623773593055e-06, "7023": -9.679762273317918e-06, "10510": -1.3009230523918877e-06, "4436": -4.5807229493296264e-06, "7256": -6.109600309558537e-06, "1152": -2.9922277631025553e-06, "7652": -2.3462098808055897e-06, "1460": 0.00033054911060009323, "11116": -7.279189163534515e-07, "2894": -3.696467439316517e-06, "2750": -1.3808023494919448e-06, "9310": -4.900987531930056e-07, "13341": -2.4388419093535257e-05, "4789": 0.00016204569692355824, "7746": -1.4723719959672598e-06, "10506": -8.666898484957429e-07, "16835": -8.048548246827616e-06, "11893": -6.994051266820659e-07, "9646": -2.7801484648884193e-06, "8193": -2.0683257063751742e-06, "1072": -2.370657201909082e-06, "7924": -8.896952760865965e-07, "7468": -1.4858904060440798e-06, "4333": -8.180794054432368e-06, "7659": -1.0768431898988374e-06, "17415": -1.698397772827106e-06, "6830": -9.919572587695947e-06, "1761": -4.434339289140191e-06, "933": 0.00041051582944412777, "7856": -1.434376840502631e-06, "3751": 0.0005693980067641067, "11092": -8.853049482145192e-07, "6700": -2.192766817867703e-06, "8496": -2.5618093757543993e-06, "1469": -2.720684013805154e-06, "3427": -3.012253004071434e-06, "15710": -5.970486313608354e-07, "2603": -3.2590834295872473e-06, "15848": -5.668830456206218e-06, "bb109455-7d66-11e5-84b7-ca8078d11aa6": 0.0024957932421663543, "1960": -2.4036376257589256e-06, "845": -4.2813112919809094e-06, "7882": -1.0539897559236289e-06, "3034": -4.21631094850853e-06, "3584": -3.986624408427076e-06, "11803": -9.202787661787227e-07, "12939": -2.0889907054041066e-06, "2509": -2.938141468337065e-06, "16534": -8.441505746341709e-07, "10294": -1.878666243158402e-06, "3839": 0.0002516200840292844, "9851": -1.3776503545964544e-06, "8703": -7.735579507539375e-07, "1930": -3.546465319281974e-06, "14357": -1.352114328533346e-06, "8181": -1.222723064828857e-06, "16515": -1.0810487762618598e-06, "2985": -3.0036012613659552e-06, "9028": 0.00034309833827259994, "2904": -1.3082483963552334e-06, "9655": -4.7704985803482955e-06, "5241": -2.8413332400026623e-06, "6861": 0.00024080543915965208, "10913": -1.7828733672369036e-06, "399": 0.0010160863311161293, "7656": -1.324463051734216e-06, "10339": -5.596338385428481e-07, "2554": -4.729817593355226e-06, "2547": -5.609522496281385e-06, "6954": 0.00024670061727985313, "6727": -9.110174845282998e-07, "2584": -2.988309431203179e-06, "16320": 0.0002870962917711682, "2621": -2.0158109509470366e-06, "3172": 0.00026827552010259646, "9221": -1.0815377005181344e-06, "10360": -5.685679602165212e-07, "1928": -3.680285781615506e-06, "8441": -3.86632029604883e-06, "12061": -1.6403643317258423e-06, "15400": -1.0489102005119889e-05, "6921": -9.136119141780571e-07, "265": -3.2453177454797527e-06, "9276": -2.077796255177318e-06, "7060": -2.5727853746383175e-06, "782": 0.00011651109142504556, "7492": -5.510226144245002e-07, "300": -3.625799809820218e-06, "12010": -1.943003193963788e-05, "7657": 0.00015848037969196644, "576": 5.2716554182923e-05, "2488": 0.0001437824035112322, "18294": 0.00020799618861008516, "1832": -3.0663681578933534e-06, "2397": 0.00017600477875033056, "7505": -5.106048721763562e-06, "604": -9.531014460683674e-06, "7100": -3.708694079514483e-06, "6802": -7.962075832788504e-06, "2232": -5.2239603368310685e-06, "8136": -1.5792392944492588e-05, "9606": -1.7282072426721726e-06, "9049": -2.623673052191801e-06, "7888": -2.7265305894778993e-06, "1459": 0.00018305760842836038, "14429": -5.146491094756182e-06, "3613": -2.898814997581693e-06, "17726": -9.136960656581004e-07, "8321": -1.3333960342510517e-06, "5712": -4.454769724487959e-06, "4796": -6.335618750163566e-06, "11009": -1.122664107596288e-06, "16781": -1.3039949848999256e-06, "7181": 0.00032875230432230236, "1535": 0.00013638768847388854, "2656": -2.543493257129774e-06, "1708": -6.159530834689335e-06, "8442": -2.0892257163783353e-06, "14394": -4.967489549116357e-06, "7535": -7.67260235478899e-06, "4971": -7.183873030634305e-07, "3132": -2.8999332866833805e-06, "8171": -9.85864464124506e-07, "1133": -2.6120021797181307e-06, "1791": -2.518037532621612e-06, "817": 9.447550056245067e-05, "3816": -5.0362551778610995e-06, "4854": 0.0019068137829131037, "8042": -1.146402966360215e-06, "8093": -1.2473391511266631e-06, "12066": -4.389582228709419e-06, "486": -1.7992281659153102e-06, "2592": -1.579069963048017e-06, "15581": 0.0009344116305840641, "2914": -9.481128733014007e-07, "4208": -4.708286708362519e-06, "465": -1.1282454685626167e-06, "17766": -5.132874962960344e-07, "916": 0.0004592251200903553, "3109": 0.0006026234436302577, "6730": -3.2714258418888156e-06, "2469": 0.00020186293225342246, "8667": -1.2197302344933526e-06, "2093": -4.546097460003195e-06, "8044": -9.75701911367744e-07, "14344": -1.030688257218735e-06, "828": 0.00017933025063049932, "4449": -2.528507261968185e-06, "2410": 0.00010714542393268004, "490": -1.5483978358724132e-06, "6804": -5.763645101108277e-06, "15375": 0.0001556798132397544, "16192": -1.261598762350841e-06, "6956": -1.2972975139393068e-06, "4189": 0.00024114699388625766, "16932": -1.4711492114142754e-06, "16847": -2.6272682907293167e-06, "1543": -5.862908311310633e-06, "6710": -1.866654955364307e-06, "6818": 0.00028153342630703307, "6424": -2.8836710280198993e-06, "14346": -3.887737461844087e-06, "9701": -1.3855743004012968e-06, "2415": 0.00042283934391160687, "4810": 0.0006277377100284093, "2449": -4.903181337739403e-06, "13368": -4.088341943624661e-06, "4341": 0.00014254742936771098, "be2ac525-3909-11e6-a224-56a308185daf": -1.3103962963802264e-06, "5700": -4.452102031163125e-06, "9607": -9.500581000940657e-07, "15444": -3.814601863100262e-06, "7298": 0.00014128299219009143, "18304": -2.7470400201166356e-06, "8459": 0.00023604899391063683, "1779": -2.5170812699012894e-06, "268": -9.051555299280213e-06, "3341": 0.00019663091641722484, "3442": -4.3847001071149926e-06, "7267": 0.000734719284948873, "15684": -9.525991973474982e-07, "1582": -2.5821209509676104e-06, "6817": 0.00016570702246993606, "1977": -5.069949832813842e-06, "2079": -3.922015970345307e-06, "2933": -4.980181768595527e-06, "2095": 0.0003112069812687985, "971": -4.372325523732375e-06, "8832": -5.093587386136694e-07, "640": 0.0006741718482995059, "1624": -4.82422397217289e-06, "15678": -7.357326227275503e-07, "8457": -2.6201223048808327e-06, "7124": -3.2825581849152615e-06, "3616": -2.579145918447156e-06, "15445": -2.6199247444664903e-06, "16111": -2.872695951684712e-06, "2257": -4.568557407213902e-06, "1087": -1.7414132745532148e-06, "3340": 0.0003096709788996022, "4937": -1.2808024931362206e-06, "7128": -2.799742276929445e-06, "12028": 0.0004646875772567183, "2734": -2.3500435631757446e-06, "10788": -2.4804930661645318e-06, "8913": -1.532462871543892e-06, "18084": -3.4928689961455154e-06, "11884": -1.5132343615575484e-06, "4704": 0.0001418251609145803, "1524": -3.195049707321589e-06, "16657": -3.2320944715128622e-06, "14109": -8.859937660702636e-07, "810": 0.00020637293449970797, "6862": -5.178084688735585e-06, "16857": -1.5551555165467724e-06, "9700": -1.77191714417615e-06, "12044": -9.110301430279016e-06, "1704": -2.7111573244603287e-06, "3213": -5.1541775682682e-06, "11401": -1.9574387762413144e-05, "317": -3.322544025651395e-06, "6900": -1.346160286871598e-06, "4111": 0.00041754824976916695, "7369": -5.425521606736033e-06, "2886": -3.867428561301896e-06, "16610": -1.1212809181120675e-06, "9305": -8.630285467126337e-07, "2453": 0.0002879215848939398, "15695": -1.68889612280572e-06, "8333": -8.041817153851273e-07, "2404": -5.0095963552450855e-06, "613": 0.00022131492911377064, "565": 0.0008207977069873227, "6816": 0.00024883040031884265, "8361": 0.00028423176541554716, "7999": -1.1271137100698304e-06, "12635": -1.4748071149675615e-06, "9336": -1.7429245918031713e-06, "2624": 0.0003003862487089474, "7154": 6.527309481951111e-05, "12962": -2.9134085621827015e-06, "1084": -6.7573646065253896e-06, "3448": -4.651842908849786e-06, "12047": -5.476064133114558e-06, "6100": -1.469195352945021e-06, "7537": -8.231536895617286e-06, "7912": -1.0449439570913659e-06, "5229": -1.6800055280572638e-06, "18295": -6.23461730268305e-07, "4686": 0.00010743124186623128, "9338": -6.994680063877466e-07, "4837": 0.00028062276974233764, "449": -1.6913116168458734e-06, "8128": -1.1442357513518335e-06, "14354": -4.531946543898377e-06, "6809": 0.00038991641729747666, "8190": -1.1984116948256342e-06, "851": 0.00021271279990578296, "2454": -5.8163376724049436e-06, "6824": -3.326515241474329e-06, "7923": -1.4946255776909504e-06, "1966": 9.414624338949166e-05, "1946": 0.00032575065320329075, "6851": -6.707769512581686e-06, "4831": 0.0010435655561297364, "10787": -1.300472148853285e-06, "6621": 0.00027211631106324036, "11260": -1.0643118842015126e-06, "8443": -3.1201418986922408e-06, "2065": 3.192193275636164e-05, "629": 0.0002977041374985019, "9230": -5.607172674271923e-07, "7449": -9.936768609095887e-07, "4991": -3.6775366635305938e-06, "9915": -2.1097215263321778e-06, "12062": -2.4541892581453927e-06, "15856": -3.145431333500043e-06, "2430": -3.760011701857274e-06, "1165": -5.581293568703301e-06, "0d0e823e-1b58-11e6-8eee-d94308b9fdf9": 0.0009150801903216787, "1621": 0.00029079946894002316, "3487": 0.0003774577734068932, "3399": -2.950403951235647e-06, "451": -2.314951971384521e-06, "2441": -2.446563157799001e-06, "10181": -1.140525301354015e-06, "6413": 0.0002680633056760786, "8631": -9.911726960669349e-07, "864": 0.00010433441004530311, "8429": -3.0617388155232886e-06, "4383": -6.465721021889063e-07, "3999": -4.28289445430561e-06, "9574": -2.0810217587900145e-06, "6910": -3.249039441426047e-06, "1101": -3.210090755482599e-06, "3211": -2.073846962191275e-06, "17296": -1.4075386634756217e-06, "5819": -2.6539875631737767e-06, "6905": -1.2534517874906788e-06, "4207": -3.2789970223404393e-06, "3663": 0.0002041204835214064, "15368": -2.887613583866627e-06, "2848": -2.803244186722268e-06, "1601": -1.855975188497096e-06, "9570": -1.5226964995666339e-06, "6737": -9.643284335429195e-06, "8162": -4.417638812902854e-06, "18291": -7.978982554099835e-06, "386": -7.253503336852928e-06, "6984": -4.058615636175339e-06, "16162": -3.925651251701443e-06, "3898": -1.3086822300093453e-06, "4984": -2.350049518614379e-06, "1629": -6.296631239607387e-06, "7925": -8.896949735723365e-07, "17119": -1.4167963033559545e-06, "2129": 0.00015660516999204402, "1887": -8.181144909228942e-06, "9307": -4.900990030157877e-07, "7210": -3.550101315364212e-06, "4967": -2.158338335672104e-06, "11021": -7.566405771170376e-07, "18063": -2.0940711164313717e-06, "3017": -1.6803651563936362e-06, "639": 0.00045719534111636495, "15382": -2.2730491922766785e-06, "2628": 0.00021415980491453602, "10975": -6.565205320856788e-07, "6918": -2.871617734954575e-06, "6165": 0.00012302896771795063, "2417": 0.0002757408080018017, "11105": -1.6602665730374304e-06, "2620": -3.6814960176427367e-06, "1846": -3.6098240747714048e-06, "-1": 0.0003501193867894378, "15679": 0.000577012795795403, "wrong": 0.01758094136816881, "7444": -1.8074610479995346e-06, "4934": 0.00020216387388500748, "7315": -2.1356742483132933e-06, "14386": -7.413675994740193e-07, "8088": 0.0, "4320": 0.0006742690402607027, "6890": -1.1218620332748686e-06, "16951": -1.7539216290245464e-06, "3585": -3.873672858290766e-06, "7750": -1.5093759036580093e-06, "3230": 0.00043581916917833513, "3203": 7.38847947998383e-05, "4922": -4.054183708374794e-06, "17722": -1.5827260285030123e-06, "9263": -1.9742056806940913e-06, "1170": -4.4866244742113415e-06, "17586": -7.458933221040256e-07, "3666": 0.0001418343646629192, "2569": -4.6319017666771405e-06, "6961": -4.520575762604042e-07, "1190": 0.0001670507382979758, "8749": -6.330677781797551e-07, "1118": -4.422592392178674e-06, "540": 0.0004606012238048249, "422": 0.0003459218821821436, "1735": -3.8496329193289216e-06, "17700": -4.862080490113682e-07, "438": -5.194871709692194e-07, "17578": -9.420765109676078e-07, "4948": 8.749355288452854e-05, "6761": 0.000508807916270519, "2949": -2.204487040038644e-06, "9807": -1.5675775086492664e-06, "1183": 0.0002999074978193715, "4322": 0.0011044854906042175, "2635": -2.379162025448964e-06, "7547": -1.5717994069963764e-06, "6713": -9.276728078511912e-07, "4342": -1.51578282042631e-05, "4690": -3.42534493628045e-06, "2506": -9.021202257619553e-07, "16183": -7.912028385911064e-07, "1787": -3.860500943786175e-06, "3022": -1.9480225884721938e-06, "16959": -9.856214636458156e-07, "2915": -3.83751968873067e-06, "7993": -4.295941580556034e-06, "16044": -2.9601805617373546e-06, "6835": 0.0001559655964750516, "1140": -3.4550399265289002e-06, "2642": -2.9114544225371934e-06, "9675": -8.082734728597829e-07, "1858": -4.119690913845651e-06, "4964": -1.3121353212652948e-06, "1576": -4.842257480972966e-06, "377": -3.965270444017688e-06, "7063": -1.4559255416463898e-06, "5639": -3.79483991903043e-07, "10936": -1.1662650257688237e-06, "14008": -1.8505911142393867e-05, "9917": -6.130662136378547e-06, "497": -1.2155512288932504e-06, "7443": -2.3193021000314113e-06, "4798": -6.046147194937763e-06, "7166": 0.004327896469406028, "2495": -1.7114848118968898e-06, "15881": -4.31304679489269e-06, "10600": -4.020684897094779e-07, "2564": -1.8179577809084972e-06, "560": 0.00036233547937403003, "3703": 0.0002341180173932212, "6696": 0.00036539083107737965, "591": 0.00017964517060984557, "4866": 0.0015020499063580343, "18286": -4.819303457793588e-06, "9871": -1.491708646003128e-06, "18233": -9.574523524005628e-07, "15718": -4.2803970926205147e-07, "7009": -3.7177467875615638e-06, "11012": -7.050710253668139e-07, "18243": -1.5250439833294441e-06, "7670": -3.832584136834645e-06, "16572": -4.388267081256454e-07, "7587": -1.4971648185621805e-06, "6697": 0.00047898238352181346, "973": -7.682118407642768e-06, "5914": -9.653406434960865e-07, "8140": -1.943097742918373e-06, "12065": -6.883045687001091e-06, "384": 3.245432470711214e-05, "1866": -2.423187355594723e-06, "4376": -3.553308556263545e-06, "7008": -7.700234341415485e-07, "3452": -4.136754447763614e-06, "2425": 0.0002510669985829295, "9012": -3.1805305156026505e-06, "3110": 0.0001677652779507413, "16842": -1.427530885061043e-06, "2219": -3.4683027799962453e-06, "7921": -4.911655455678185e-07, "11206": -1.552458635623293e-06, "1125": -4.2685375206987095e-06, "6884": 6.768136334192445e-05, "3131": -4.0107083803707945e-06, "6815": -6.1988193548053415e-06, "5738": -4.691388663679679e-06, "3614": -4.11909301974302e-06, "9828": -9.674350184250716e-07, "9998": -1.1714042691896819e-06, "18292": 0.0001233521038907137, "4097": 0.0001761781053689338, "927": 0.00047871358515991393, "4981": -1.5005672362835867e-06, "2903": -2.358425296096188e-06, "7774": -3.1573844746828647e-06, "17915": -4.38826161703186e-07, "16966": -6.866969228780056e-07, "396": 0.00029264811352597373, "5841": -3.71285103995539e-06, "7899": -2.250105582400907e-05, "1476": 0.00028092664133558276, "12942": -3.1872629439444725e-06, "8427": -3.100982863948277e-06, "3395": -5.705361581189854e-06, "2923": -1.8777271565132648e-06, "15857": 0.0001961552148922185, "45731551-d7aa-11e5-9ee9-b3a0ca6334c1": 0.001465085691873703, "4961": -2.6181344082311437e-06, "3885": -7.312641188676284e-07, "1909": -2.7724204257630884e-06, "453": -1.163661169458097e-06, "9311": -9.354737359219805e-07, "403": -3.042199581078227e-06, "6913": -1.112967424850114e-06, "5307": -1.7939755387043097e-06, "13907": -5.1634601234753465e-06, "8698": -1.0189007314224053e-06, "8077": -2.1426163617703604e-06, "2132": 0.00012209976220009327, "4978": -1.6821945964040951e-06, "8212": -1.6551348139258684e-06, "7818": -1.1360237444100026e-05, "7939": -1.4008889938525999e-06, "1633": -5.079584173395495e-06, "15587": -1.3923278623770172e-06, "6734": 0.00020903772752004673, "444": -7.392871962658992e-07, "4437": -1.9797299340017426e-06, "2910": -3.75670222464864e-06, "891": 0.0001571332736041267, "9005": -2.1907744277449845e-06, "15384": 8.817213294080648e-05, "15369": -4.909717485174167e-06, "4169": 0.000219292639591715, "16933": -9.582265240159948e-07, "9018": -1.1397495340898753e-06, "4829": 0.00014986052624473253, "3455": -3.707738787371714e-06, "3198": 0.00041728695899271787, "8180": -1.9918950021771042e-06, "16321": 0.00017442792154146367, "1812": -5.271684595249328e-06, "15890": -1.8869390559855025e-06, "15838": -4.0943695296608424e-06, "10592": -1.0900233187843832e-06, "6834": -1.2218875070068865e-05, "7427": -6.750212537446859e-07, "18092": -8.711132283003493e-07, "2077": -1.7153800982347583e-06, "9680": -1.427087278146458e-06, "3644": -7.616966256168796e-06, "611": 0.00021346681452017802, "2285": 0.00022657850464890406, "16316": 0.00015352008014902504, "1726": 0.0002363820185475084, "15641": 0.00041435674259568547, "7075": 0.0012787797213338584, "367": -3.266424072085448e-06, "8858": -2.981276270471114e-06, "8598": -1.0679641421334548e-06, "4144": 0.00032586050274643804, "4770": 0.0001402691997970442, "7560": -1.4396553806861281e-06, "4923": -4.861103930048211e-07, "4279": -5.697250820215627e-06, "7195": 7.58982254597452e-05, "6715": -1.5808366031854137e-06, "905": 0.0005001228593592764, "2739": -1.8886175852009918e-06, "464": -2.4915965239564694e-06, "15231": -1.598129024315745e-06, "7506": -2.9341592664232633e-06, "3631": -1.0880244760695211e-06, "12029": 0.0006050056179428358, "9571": -9.075109250501751e-07, "14423": -3.750703046989164e-06, "2482": -4.012577240420172e-06, "8876": -1.8835394676739983e-06, "8636": -1.4852618986344294e-06, "323": 6.108945304379464e-05, "7542": -1.586889234936418e-06, "6791": -3.2963325460596267e-06, "6735": 0.00035029341846235526, "1698": -5.40742984566084e-06, "7187": 0.00025332248493266076, "2556": -6.905018467362031e-06, "1586": -3.7830217673923934e-06, "2505": -2.3144324650453486e-06, "15840": -1.1395291053141752e-06, "3199": 0.00024195876611464125, "9340": -4.473922623559815e-07, "1923": -3.103773983504685e-06, "4123": 0.00011785200493578942, "6695": 2.0098740566371017e-05, "4821": 0.00013988204049527914, "7433": -2.936376488531753e-06, "4818": -4.446778611345098e-06, "12035": -3.6506651950355683e-06, "1933": -6.228043176065373e-06, "2112": -3.648221013611902e-06, "1154": -1.8182140508267518e-06, "7917": -8.645947847055539e-07, "12630": -1.522693610879944e-06, "16109": -1.980741156667483e-06, "1148": 0.00011475433995753481, "6850": 0.0006325027984191725, "17231": -9.761896408650946e-07, "4983": -4.041622259723134e-06, "7541": -1.781348035455531e-06, "388": 0.00017490845163271396, "9632": -2.4798101863083304e-06, "376": -3.0945822689463527e-06, "9258": -1.463436680729227e-06, "1472": 0.0003115085829105655, "12042": -3.908568775501948e-06, "4776": 0.00013096903278231821, "468": -5.550748224490521e-07, "2247": 0.00015677600033005008, "6716": -1.7258487635011348e-06, "14795": -4.26258198868956e-06, "7430": -1.7252331882097022e-06, "4255": 0.00031025921514612657, "9ee27bc3-7ca8-11e5-8e90-6d1752ad4c7c": 0.0009656066065575254, "7926": -9.346285659428484e-07, "15413": -1.6353374005013628e-06, "3227": 0.00031949647881314517, "2393": 7.56242451831584e-05, "5304": 0.0002319149817091563, "6792": -8.822909417338564e-06, "15863": 0.00027194042000205774, "8878": -1.484381903904751e-06, "12024": -9.902161705084184e-06, "3121": -5.148700310214214e-06, "6822": -2.7663875853154317e-06, "16849": -9.684971580419338e-07, "11264": -1.4598939339200856e-06, "8908": -1.6874313607684945e-06, "13891": -1.3999456836548947e-06, "2445": -3.645394856928684e-06, "6729": 0.00024735492194297273, "4772": 0.0005007263171665496, "5887": -8.914559471175157e-06, "3120": 9.467939998431708e-05, "411": -3.1797583584163963e-06, "1162": -2.668097295245915e-06, "9916": -2.428673386619782e-06, "16945": -8.006981747690315e-07, "1721": -4.833706309840382e-06, "8705": -1.9306460631046167e-06, "2105": 0.00020179489883081285, "12037": -5.8510013026144735e-06, "17759": -2.3115952524831605e-06, "8569": -1.716337244948526e-06, "7633": -1.5032244785275509e-06, "2526": -5.166221604641518e-06, "594": 7.216055862815305e-05, "5695": -3.054435166325161e-06, "354": -6.4325107654683785e-06, "9303": -8.023596249348747e-07, "2539": 0.00024745521068588274, "2722": -1.6784048234321623e-06, "2069": -2.681958612879854e-06, "3884": -1.5014129206080583e-06, "8288": -1.2736898761595995e-06, "12631": -4.7849606528877785e-06, "4793": -2.2379768101786184e-06, "14419": -9.74772727016377e-07, "3628": -8.339528857258687e-07, "9034": -8.178601281306777e-06, "8842": -9.986423878175013e-07, "446": -9.382352807580562e-06, "9776": -3.2452122147400556e-06, "3103": 9.63553872599409e-05, "7186": -4.515833756064234e-06, "495": -1.0203669594954394e-06, "331": -1.1962548715805735e-05, "7703": -1.4890245723785029e-06, "1194": -3.1787210834211707e-06, "1959": -5.315851838682875e-06, "7501": -2.101101259085389e-06, "2741": -3.6377044913785977e-06, "2644": -1.6331239413048683e-06, "8512": -7.395685092302126e-07, "6831": -4.200728173612082e-06, "7874": -1.6969773398799015e-06, "930": 0.0002512528564019288, "1122": -3.632172463914126e-06, "12267": -4.0788004441193225e-06, "15377": 2.4558281822463458e-06, "18290": -2.4923575424534214e-06, "4782": -3.7429969914777513e-06, "4865": 0.0013904554124734704, "4247": -4.137940276628938e-06, "4989": -6.9156765088012386e-06, "2658": -2.6090193127045e-06, "395": 0.0007318595111853215, "6687": 0.00042760392834574525, "11864": -1.3768186050196026e-06, "12011": 1.9572049099445953e-05, "3828": 0.00032493148218794494, "7418": -2.4836027441916895e-06, "11892": -1.4099150337119003e-06, "18040": -4.306044495291524e-07, "2649": -3.0671237189100726e-06, "1774": -3.1150491193423582e-06, "6799": -3.410946423854186e-06, "1826": -4.654489847435074e-06, "2870": -7.358289105485836e-06, "18297": -9.437561310790053e-07, "8395": -5.392538009080988e-06, "16158": -9.661570697090216e-07, "7378": -2.182124528447189e-06, "10849": -1.2248951250559954e-06, "4440": -2.6221378690628243e-06, "8241": -1.9374084613415114e-06, "7463": -1.446239622522342e-06, "3469": 0.0006013946815438027, "3488": 0.00013864643405513062, "436": -5.578931960891261e-06, "7320": -4.277316294145534e-06, "1715": -3.0686662870627683e-06, "16927": 0.00013805005812276934, "2595": -3.685319883257971e-06, "11224": -1.5672283519732182e-06, "110cb1ef-1b58-11e6-b15e-5ec045512968": 3.9569379621653936e-05, "4916": -3.53991017035481e-06, "16564": -1.4388173156145225e-06, "16313": 8.08043141887456e-05, "3476": 0.0001723669996157421, "4709": -4.2418480495392685e-06, "2653": -2.2239712488438008e-06, "9286": -5.811852895952117e-07, "6773": -8.426767854465978e-06, "13216": 0.0001772914289415324, "8389": -2.9551690700989584e-06, "5855": -2.073933850683102e-06, "900": 0.0003410679255183075, "18289": 4.159547834761766e-05, "cee20e50-443b-11e7-b873-8b0a0b60e48c": -3.6410547252150665e-05, "2474": -4.556539874201182e-06, "8080": -2.1070072010975863e-06, "17593": -1.9053047933499518e-06, "4974": -3.1414457943229953e-06, "15397": 0.00025588291235942887, "7462": -1.5984242012621624e-06, "6908": -3.999879376161063e-06, "2626": -1.7668760946638056e-06, "1603": -3.5522008193363337e-06, "2420": 0.00024419016768490793, "2436": -4.617132258870756e-06, "5698": -2.0441755876086405e-06, "7775": -2.908840353381968e-06, "11898": -1.230267085658855e-06, "297": -3.4871656243573366e-06, "4863": 0.0010105718880609247, "1924": -3.224267906360632e-06, "10260": -8.487186427217852e-07, "11770": -1.5653324915209567e-06, "2426": -4.092706590946427e-06, "398": 8.689121599268842e-05, "7731": -2.7118488686605636e-06, "4105": 0.0002946634492692272, "14696": -2.706200140932228e-06, "2782": -2.2526297234033204e-06, "18266": -8.926074762784067e-07, "12638": -2.2199531228719174e-06, "402": 6.117601463488893e-05, "8090": -1.0538276710588515e-06, "3232": 0.00013591003301437104, "11763": -1.3750464880243084e-06, "359": -7.5735947183151745e-06, "15830": -2.610009888943167e-06, "14342": -1.047704730089837e-05, "1073": -3.5981289866843796e-06, "6757": 0.0001931790579494865, "4914": -4.162410143195297e-06, "1180": 0.00022999268283222025, "8461": -5.285396729422418e-06, "12023": 0.00030847142553489605, "6877": -4.8209211237883975e-06, "8298": -2.7720252867945448e-06, "10845": -9.73848898074215e-07, "929": -6.168044065022907e-06, "9718": -2.0529414314648135e-06, "8434": -3.782751315988385e-07, "9735": -1.4625765082214992e-06, "6765": -6.232986534892273e-06, "12046": -3.1072569799549947e-06, "f5043540-cd33-11e8-a349-845841173806": 0.0003349076022135115, "6873": -6.727182666915509e-06, "12622": -1.4884967553667075e-06, "3827": 0.00022543016957239523, "1917": -5.735436833570398e-06, "572": 0.00048333583770164334, "1644": -5.1657122589084536e-06, "8342": -1.8047326966744967e-06, "12020": 9.276936920041494e-05, "9673": -8.08273775379844e-07, "11146": -1.0539078262717847e-06, "10026": -6.022674179577523e-07, "550": 0.001600630548206446, "9730": -8.077884487868476e-07, "307": -3.458903421467752e-06, "8320": -2.0785925010983453e-06, "7812": -8.350618222016328e-07, "9024": -2.1141893518759816e-06, "2586": -2.1536767518555806e-06, "1686": -4.898363583142264e-06, "3111": 0.00014052242096176492, "3165": -2.9623740775077726e-06, "7260": 0.00035056789500164455, "2401": 0.00016335074925324838, "12896": 0.00026131163615124574, "295": 0.0003121626050093064, "792": -6.501496184912105e-06, "4830": 0.0001376285215924477, "6712": 7.16481961081772e-05, "9997": -1.4397244503632468e-06, "6994": -5.481330581237775e-06, "4396": -1.007140095041185e-06, "972": 7.859092521248762e-05, "2394": 8.172678483164921e-05, "2637": -1.8990506920727513e-06, "847": 0.0001746665606109672, "2412": -4.981728088961054e-06, "2591": -2.883619897326746e-06, "7475": -1.3233404544115552e-06, "7741": -5.197429599565415e-07, "7655": -1.965025331590077e-06, "1895": -3.560690981530759e-06, "13260": -1.165014910521666e-06, "12628": -3.8154040747567857e-07, "7325": -1.0301928374056636e-06, "3414": 0.00029357384684294987, "7472": -9.629771311977484e-07, "6159": -1.9365655586610864e-06, "8868": -1.2866771933303393e-06, "6983": -2.091180295071346e-06, "15334": -2.520592942075975e-06, "12086": -1.2512354272838152e-06, "2961": -1.584509040462083e-06, "5230": -1.0732939365714243e-06, "2478": -3.3605040110321344e-06, "11208": -6.868247890380963e-07, "4819": 0.0004064264707051087, "10843": -2.4997078830243152e-06, "609": 0.003183630693359046, "6169": 0.00027296491381280575, "16935": -2.0158646140561073e-06, "6878": -7.773949502676211e-06, "1163": -2.951248879980314e-06, "624": 0.000752250081067396, "5784": -3.5560702769436755e-06, "15392": 7.596709254259205e-05, "8165": 0.0004321499459078367, "1941": -3.86955846194691e-07, "8129": -2.6199912404800956e-06, "1684": -1.924339359851888e-06, "7747": -1.5014814681578834e-06, "2227": 0.00013204815333165757, "11219": 0.0004742729126404587, "6714": -3.412876310048276e-06, "1849": -3.7414406509196183e-06, "2570": 0.0001643304707202446, "10590": -1.3311005304259028e-06, "3664": -4.368535338168804e-06, "4334": 0.0009690180135550812, "10791": -5.976400147977519e-06, "6419": -3.6146978584902613e-06, "7384": -6.014555842577593e-06, "1961": 0.00014063193992478276, "405": 0.0002698786145102679, "11209": -4.343795879184565e-06, "10585": -1.0154154826213843e-06, "2125": -2.096561010135386e-06, "7403": -4.079708153758618e-06, "16317": 8.697079290329696e-05, "4963": -3.2527095851853255e-06, "4833": 0.0009691745926659179, "11201": -1.9509598370936187e-06, "3709": -4.342420904672415e-06, "7262": -4.870707991081689e-06, "2145": -4.11898704783225e-06, "15835": -2.7710447865513565e-06, "1915": -5.962737965339581e-06, "15655": -6.449443102183489e-07, "15417": -3.586624549551577e-06, "2515": -3.895879883367829e-06, "18296": -4.60301509663064e-06, "4995": -4.793087167904905e-06, "7545": -2.555323372488187e-06, "7573": -8.739232445073609e-07, "14693": -1.2164036281325322e-06, "541": 0.0003016935689579448, "4845": 0.0005670853010657396, "18302": -5.167478665225906e-06, "4826": 0.00018417944768471322, "1113": -4.8326378816234355e-06, "7571": -1.8459082055592793e-06, "2492": -1.6702888828633e-06, "1487": -4.908434650579381e-06, "9236": -1.3797586293700529e-06, "2575": -1.643232025018295e-06, "12009": 0.0010908845902795757, "1168": -4.2032711154800165e-06, "2265": 0.00014143563088568192, "415": -1.1555733232453006e-05, "557": 0.00015855248904519506, "6814": -4.99663530587826e-06, "8508": -3.830776904129961e-06, "14948": -3.88260299806583e-06, "16114": -9.334037021866998e-06, "12949": -3.718696942186499e-06, "14697": -2.7552054546655837e-06, "6811": -4.148519831579401e-06, "15851": -4.399728303064805e-06, "6416": -1.1812550356377958e-06, "12888": -3.1401583388265554e-06, "4766": 0.0007574206696966558, "2409": -5.542145348024149e-06, "11033": -7.912843574538232e-07, "17192": -1.3211696090518494e-06, "17747": -4.187775874967455e-07, "1888": -3.5204787787993025e-06, "7723": -5.46737076483173e-07, "16530": -9.53950517150158e-07, "7107": -1.942935218540119e-06, "410": 0.0008826695798342891, "6826": 0.0003259637536622837, "1515": 6.168998237785468e-05, "7432": -1.927297048171378e-06, "16811": -1.3317514018529229e-06, "1733": -2.3734224887883893e-06, "6889": 0.0003027453406288096, "6789": -5.432124983670857e-06, "4713": -4.2240025135685554e-06, "15713": -1.8666988658029056e-06, "4095": 0.0003145342650427948, "4958": -3.019504756569472e-06, "7428": -1.1980962814355754e-06, "5786": -3.2560438681895555e-06, "9213": -1.7415743223285071e-06, "4725": -1.53172913631989e-06, "6888": -2.884626266658844e-06, "7254": 0.00023119090421602558, "7095": 0.0004976193926355962, "6934": -1.3056111289805084e-06, "8169": -1.310757170348826e-06, "10196": -4.4739201155027863e-07, "8289": -1.0901755016135408e-06, "1792": 0.0002188042934914648, "17590": -1.5466723822074387e-06, "1551": -2.36311406419133e-06, "0afb1700-2b38-11e7-8144-81729bc9acd9": -7.422446515189416e-07, "7635": -5.963826153756866e-07, "7230": -5.888014099395373e-06, "426": -3.8492801119865106e-06, "2705": -3.435388786046289e-06, "1811": -3.193948708340226e-06, "7733": -1.2684930356552309e-06, "6969": -1.1534657984514267e-06, "6751": -4.962031821284419e-06, "17734": -3.0589746504679925e-06, "7669": -2.9699350304893508e-06, "7737": -1.931827459165461e-06, "8378": 0.0003438137137188568, "2936": 0.00015229925763705348, "4096": 0.00012104423261068956, "7109": -4.14321583104195e-06, "8379": -1.710836156725095e-06, "2858": -1.9065825991262426e-06, "7949": -4.519534499519491e-07, "13367": 7.190855131726013e-05, "2510": -3.62102249322207e-06, "7489": -3.5071787639677095e-06, "17703": -1.0861595682457354e-06, "8388": -9.480784473446698e-07, "7863": -7.717577260386578e-07, "9322": -1.3460840320195408e-06, "16824": -1.93753413566552e-06, "17724": -8.209632714803149e-07, "5740": -1.7345551179665237e-06, "800": 0.0002498457301507941, "6747": -5.645461649853127e-06, "2464": -2.5236828613099663e-06, "8599": -8.861428293645493e-07, "7952": -4.519533795350006e-07, "7735": -7.855634376025826e-07, "7672": -2.5293424927967366e-06, "581": 0.0004857961171383276, "2561": -4.200772879075189e-06, "17741": -2.2088071218450236e-06, "2902": -2.6624610302298807e-06, "6709": -4.901936810684897e-06, "7811": -1.2938021672016797e-06, "7062": -1.5436210773491087e-06, "8331": 0.0007887501197536743, "1498": 0.0001570372543364046, "445": -1.1218382231841425e-05, "1466": -5.325671904832354e-06, "1745": -5.392234597918211e-06, "7721": -4.80571904507701e-07, "8350": -6.800153769549849e-07, "15342": -5.812131801213224e-07, "8168": -2.3894574531340327e-06, "6745": -1.483462455594269e-06, "6846": -4.71582542918702e-06, "3429": -5.4131432492020914e-06, "428": 0.00023774567130389518, "9629": -2.072643236983471e-06, "2489": -4.11905990805352e-06, "1898": -3.979129738689386e-06, "4716": 0.0003878959887714451, "1453": 0.0006372932309409839, "6402": 0.0006895814069982969, "11885": -6.507987580240563e-07, "2609": -2.2854049610837197e-06, "8497": -2.485485164797598e-06, "7795": -1.3003116511200918e-06, "1947": 0.00027365962126923874, "2868": -3.713551233803548e-06, "4673": 0.00012826541492094113, "4717": 0.0002503399174729546, "4996": -5.1412935673695955e-06, "6776": -6.162700701875212e-06, "8628": -1.644998309429219e-06, "2438": -4.7166723847575124e-06, "7749": -1.3623243235379954e-06, "10060": -1.0815372039769251e-06, "4054": 0.0004884022466962655, "1847": -4.384039960514834e-06, "12007": 0.00024916438707351827, "7966": -1.0836067123931973e-05, "9869": -1.1019834570654392e-06, "6099": -1.3026490355678531e-06, "15406": 0.0001832180629323491, "12894": -5.179875760641149e-06, "3106": 0.0003551149087732135, "11355": -1.7527906734067348e-06, "2055": -4.645529188194566e-06, "11191": -5.5740989391352e-07, "7914": -8.539417436405778e-07, "582": 0.0006458921803084252, "2959": -1.5429383378976884e-06, "4822": 0.0006962208445375152, "2816": -1.6042699320117151e-06, "3105": 0.0002419227162860424, "7564": -9.792693302724223e-07, "7458": -1.250575197959318e-06, "574": 0.0001709529878296888, "2590": -1.1220054317652309e-06, "1654": 0.00032669022513687364, "8188": -1.3216998130258625e-06, "8751": -7.979371974032343e-07, "7477": -1.8298508907665578e-06, "9972": -5.630590638048674e-07, "8175": -2.5808731305962933e-06, "390": 0.0011170608562081313, "4975": -1.7914131356796423e-06, "10027": -7.437771815015006e-07, "6955": -3.9625917047162675e-06, "11775": -9.006015100167918e-07, "14425": -1.7865296803502054e-06, "2751": -1.5715539656243864e-06, "15398": -2.332651143918334e-06, "8102": -1.273868453665663e-06, "15366": 0.0001398631672977648, "4326": 0.00047341557149165785, "326": -4.478177984529659e-06, "2844": -2.333509822358982e-06, "9009": -1.221262771849907e-06, "16601": -1.2092687803456545e-06, "1672": -7.959421303092753e-07, "4976": -1.8321029721827564e-06, "4511": -7.5661270887086924e-06, "6690": 0.0001344501109670582, "17702": -1.0317495116072402e-06, "2442": -3.015028282786682e-06, "6784": 6.238889826828816e-05, "7500": -8.273035172321321e-07, "4926": -5.68353492293978e-06, "12250": -1.8684597182366002e-06, "4344": 0.0002799515920293235, "7905": -6.919445850592132e-07, "15415": -2.100185688479903e-06, "4509": -4.934327873527687e-06, "17504": -3.480043610433028e-07, "9698": -1.731620969870055e-06, "7178": -2.1527139782727186e-06, "12836": -1.0709978385232664e-06, "11760": -1.3234363759371393e-06, "3107": -3.0550293312674767e-06, "4780": -1.1126070142634803e-05, "3159": -4.4770244573752286e-06, "16814": -3.593740978240337e-06, "2280": 0.00010560347042629897, "3122": 0.0006286648130121169, "627": 0.0001932854829304676, "12961": -2.8646640691168764e-06, "1353": 5.9300704775514666e-05, "8884": -1.0055962914664678e-06, "6925": -4.54581048710405e-07, "2437": -4.948354465172576e-06, "12063": -1.996514592965607e-06, "3790": 0.00021068431409858865, "14258": -3.464163032000568e-05, "5770": -3.702966821107606e-06, "8426": -3.615373865131938e-06, "642": 0.0006484466314244172, "15446": 0.00014843033735516536, "2396": 9.103144936050839e-05, "17763": -5.132876536732515e-07, "2046": -4.0577426087360976e-06, "568": 0.0009335714840028074, "18170": -1.5199141114995655e-06, "5020": -5.115491834260035e-07, "4851": -4.153871690707253e-06, "7106": -1.492289403972883e-06, "7903": -1.7918510391506716e-06, "9022": -2.1495451887655254e-06, "15367": 3.9626758705485864e-05, "8381": -2.2391646993541733e-06, "1070": 0.00029910976402846553, "809": -5.841939684677061e-06, "12947": -3.0433711000424932e-06, "11172": -1.9276561424054977e-06, "2082": -4.185985481304536e-06, "1864": -5.523607665692322e-06, "12057": -1.8123279526971517e-06, "5789": -2.850689185682339e-06, "7393": -3.8043271109749837e-06, "2785": -2.8474999453667885e-06, "4915": -4.382046035610763e-06, "12087": -1.058440991054638e-06, "10342": -1.8843926924711306e-06, "4389": -1.6271140289585788e-06, "3480": -2.5980534558575078e-06, "6898": -1.467675310642093e-06, "8291": -1.8886249006930046e-06, "785": 0.00036757117684950994, "12618": -3.200117971799272e-06, "1475": -5.241746312485434e-06, "1764": 0.00031090420758223133, "9805": -6.675148614869692e-07, "6876": -4.9945867952585e-06, "494": -1.6764349734750788e-06, "7965": -1.0699614568630226e-05, "10066": -2.7364031289636403e-06, "7471": -7.725860854251675e-07, "b127f550-7d66-11e5-92f9-06c62b029f94": 0.0005126048305853126, "3707": 0.00017814570595966269, "16930": -5.248460004003828e-06, "796": 7.437988762932528e-05, "1838": -3.42813593455578e-06, "8163": -2.394917605805733e-06, "8172": -2.5514664108108176e-06, "643": 0.0006039651395511992, "1836": -5.8646667556646055e-06, "12006": 0.00011802066588938264, "12041": -3.2444529942655126e-06, "8167": -2.9556627651346853e-06, "8164": -1.6204024183911222e-06, "2617": -1.7879084636963487e-06, "8573": -1.0584906737620563e-06, "3318": -5.819527714296355e-06, "10589": -1.723520383583595e-06, "8184": -3.3253964848998886e-06, "8836": -1.1288911986520379e-06, "1150": -3.209367570803485e-06, "15619": -2.8430736112747885e-06, "15725": -9.881026187186616e-07, "10013": -6.838208069284193e-07, "2402": 0.00017196046913042662, "385": -7.053216838007694e-06, "10043": -1.053259499279704e-06, "2917": -3.211208763547914e-06, "7727": -2.1772499358245972e-06, "12000": 0.00018294804123235482, "2975": 0.00033115251532852847, "14369": -1.0923057180339584e-05, "4343": -8.415922723276084e-06, "2483": -4.8173760720361745e-06, "16639": -7.555726630239224e-07, "4994": -1.99570133847085e-06, "1155": -3.6075042776984476e-06, "4515": -6.101661537393919e-06, "570": 0.0023349540783088323, "4973": -2.264188044040506e-06, "6129": -1.476115065779013e-06, "338": 0.00025714753463119917, "17575": -1.8371267905924283e-06, "8186": -1.6948725799780884e-06, "7739": -7.016033688266947e-07, "3024": -1.0353887754367553e-06, "15272": -7.808861961125804e-07, "5823": -3.3775317647299153e-06, "4857": 0.0007056056830310127, "10199": -7.987012068511148e-06, "6733": -1.0766039132571356e-06, "901": -4.257770559793145e-06, "2078": -2.495863239524839e-06, "3887": -9.933611657403468e-07, "7946": -8.859985238298284e-07, "10338": -1.7563619713571763e-06, "10341": -2.603328402370383e-06, "7891": -2.528822303077192e-06, "2735": -3.455385841018559e-06, "1963": -6.8506888205036034e-06, "4385": -4.99097812707113e-07, "16801": -8.690178917066347e-07, "8131": -9.722181323217187e-07, "11861": -9.091683020276578e-07, "368": -5.558022069089281e-06, "1526": -2.7976704464730404e-06, "6162": -2.644245531689889e-06, "1182": -3.5020080077763836e-06, "6786": 0.00030993139183831066, "16600": -2.52869253817216e-06, "4816": -4.908196746758788e-06, "6412": 0.0004835686804541408, "2557": -4.817750712724982e-06, "8242": -1.7311108225236414e-06, "6808": -7.1171518495087275e-06, "3568": -2.50261373454247e-06, "281": -4.8957715087387035e-06, "1753": 0.0002614256010625704, "11764": -1.0394398575195694e-06, "11671": -1.5124850585080486e-06, "7885": -1.8190722076138608e-06, "7330": 0.0002307919033134882, "2797": -8.816259289912303e-07, "4930": 0.0004379965664453766, "9968": -2.0829698561495705e-06, "4212": -2.9053025685278764e-06, "1663": -6.283707714566641e-06, "4824": 5.346036515854308e-05, "7456": -1.3109156279992112e-06, "1179": 0.000286661952229595, "16217": 0.00024371196476792592, "2284": 0.00017050828303719862, "8839": -5.093585337068397e-07, "2429": -3.852976275523326e-06, "3206": 9.030476322629248e-05, "309": 0.00016407538153629197, "4846": 0.0007881412720048362, "15505": -1.0238226550612697e-06, "14347": -2.597419329448587e-06, "6098": -1.1330112964266673e-06, "1537": -6.304512595170839e-06, "3630": -1.6069958799324115e-06, "16319": 0.0001567222417124372, "8572": -4.5195186719624913e-07, "8850": -1.4912008798000899e-06, "15579": -9.120995536110378e-07, "10222": -1.2373368910578463e-06, "7724": -2.391465752761656e-06, "404": 0.0004715980928166606, "b695e1a4-7d66-11e5-aecf-2db16c0d7a4b": 0.0008914134297492107, "6857": -2.0614216515281443e-06, "7714": -1.9963388285381116e-06, "1820": -3.637626686561744e-06, "11434": -2.0777932651508073e-06, "8185": -1.2534450446114715e-06, "15407": -1.2320326909808267e-06, "559": 0.0010537721554180095, "8277": -1.6016622176800522e-06, "6953": 0.00045886446377486895, "7799": -2.1696357072376385e-06, "1615": -3.160561160550849e-06, "8292": -3.0259765157857124e-06, "17581": -2.9081701901644333e-06, "8097": -9.228882760252904e-07, "4512": -7.727740654044878e-07, "15680": -9.538596514165927e-06, "8161": -2.9550519999748734e-06, "1556": 9.663254271678501e-05, "6793": -1.0282436792270548e-05, "16928": -5.800397218248801e-06, "4377": -1.5792279765332825e-06, "585": 6.749920456414175e-05, "17710": -7.383508581712176e-07, "3434": 0.00019955383269985115, "2414": 0.0005924855693940924, "3468": -5.044045913273538e-06, "7771": -1.215019009680968e-06, "623": 0.00016958215556359533, "7113": -3.068357848767642e-06, "1852": 0.00022793439949366607, "7258": -4.861575055990162e-06, "3197": 0.0007116885652417043, "346": 0.0002853734947039155, "7127": -3.7450209585712163e-06, "4703": 0.00013182589899239373, "1827": 0.00023319078678357873, "1955": -1.8205953898673222e-06, "1731": -5.239341902528381e-06, "4966": -2.125663917024199e-06, "7447": -2.9878084496728187e-06, "2920": -1.8014098826173232e-06, "6927": -2.0405639033658776e-06, "6797": -6.539481106773246e-06, "7220": -3.532890587552481e-06, "1828": 0.0002999797777317379, "1568": 0.00019586020620665132, "6421": -4.023536945035114e-06, "16743260-df24-11e7-b822-728914fa9137": -2.8259590854120616e-05, "15583": 0.0005772110164303157, "17596": -1.5466706479949083e-06, "10790": -4.6278456194688196e-06, "11204": -3.350749587990966e-06, "3219": 0.0002633893498859057, "9836": -2.59791546882315e-06, "12018": 0.0006018406468726408, "9812": -2.864919014651176e-06, "5858": -1.1498743983957822e-06, "6926": -1.5893014233369835e-06, "1835": -5.530031991259893e-06, "16312": -1.0441988385945959e-06, "6a0e88b0-36d9-11e7-8ee1-d101e613880e": 1.8476257526775455e-05, "12823": -2.536519209325363e-06, "4817": 0.0003836451843198392, "6971": -6.314178487827521e-07, "4969": -2.598963553827201e-06, "11217": -5.859800485463004e-07, "8521": -9.015747890830343e-07, "17121": -1.6047469799737638e-06, "15846": -5.939466002050363e-06, "3754": 0.00013728384196807502, "6820": 0.00020150250729287039, "7493": -7.248606627335314e-07, "7711": -1.068020862533847e-06, "6800": -5.103802255676427e-06, "3208": 5.271691354512901e-05, "6829": -9.27952534683209e-06, "2755": -3.607597298434558e-06, "2110": -2.8755515125981017e-06, "2407": 7.228878160813127e-05, "3108": -7.345035045440984e-06, "6417": -3.235714329047669e-06, "14975": -3.296764112813149e-06, "12945": -2.541076991059938e-06, "2718": -3.080828150303112e-06, "443": -5.550757509297667e-07, "2253": -4.692201107303896e-06, "815": -4.743172888597369e-06, "11168": -9.370798730055844e-07, "1920": -4.438843174677682e-06, "4840": -6.9216591478684e-06, "8800": -5.955243564791458e-07, "3833": 0.0005417275505788942, "8383": -1.1681513831210885e-06, "8337": -3.7501621454200855e-06, "13905": -1.1594804016001229e-05, "10288": -1.6974080931871658e-06, "6780": -2.7247069803851703e-06, "2073": -5.1541765234583e-06, "4325": 0.0006910621565280165, "9778": -8.493695023638546e-07, "8053": -8.191828376326536e-07, "7964": -1.2433975992865182e-05, "3890": -9.763399595795432e-07, "11773": -1.4907410193811553e-06, "2263": -4.680658790076494e-06, "7091": 0.00012708790732255076, "4844": 0.00033792385670591764, "6907": -4.8044453474119125e-06, "9608": -1.3998676248074016e-06, "7117": -2.513516143829428e-06, "1132": -2.4941006004404178e-06, "4366": -1.1921462158180744e-06, "378": 0.00022392101326147034, "3207": -5.2378735688510675e-06, "9341": -4.473921787382256e-07, "1742": -6.175647478950266e-06, "16763": -3.1646586535396364e-06, "12670": -4.377818688253844e-06, "8910": 0.0002067153935874357, "322": -1.090768128373251e-05, "2051": -3.3599386335057922e-06, "2255": 0.00016718102264629716, "4721": -4.513824954376367e-06, "7368": 0.0002288491493306591, "5305": -3.488273498934502e-06, "17704": -1.333760358797645e-06, "8178": -1.8338176478268978e-06, "355": -6.545148615458636e-07, "334": 0.0003458616457875314, "6787": -2.8389475715814186e-06, "6819": 0.00043701114985002053, "7647": -1.4596036261883166e-06, "3209": -2.5829922405595693e-06, "849": 0.00039540086433478936, "7303": 0.000424825566580829, "10481": -1.366021016349054e-06, "1648": -1.5999281563205727e-06, "11008": -7.305004336716749e-07, "8074": -1.9236795569039636e-06, "3417": 0.0, "8297": -1.8648324112653151e-06, "4972": -2.3580533996020883e-06, "7576": -2.603903253435075e-06, "1725": 0.00022294175240980288, "17764": -5.132875749818063e-07, "8246": -2.649310188549631e-06, "4378": -1.9210660504165107e-06, "3836": -4.540656005283469e-06, "8240": -1.1233107727234278e-06, "31de6b20-0fd9-11e8-8193-88179496cfbc": -8.952712044171184e-06, "608": 0.000446884431257736, "6740": -5.525542538156406e-06, "3465": 9.40447369496855e-05, "417": -8.325345612786981e-06, "2422": 0.0003644780335406602, "1970": -3.489682797785839e-06, "17736": -3.859691376426558e-06, "6721": -4.018603443633167e-06, "10973": -1.3474441990627975e-06, "7436": -1.6588529648935788e-05, "2786": -2.8316227819976893e-06, "7572": -7.784202120694684e-07, "2757": -2.5176539657729805e-06, "3860": -1.8434303571953225e-06, "2432": -5.613441725693607e-06, "9627": 0.0003279072179493606, "7013": 0.00016040328783396764, "1869": 0.000250487372575497, "409": 0.0011506058801911217, "18176": -1.3197974040666665e-06, "2465": 0.0003592101215939001, "7543": -1.8331449308280747e-06, "4939": 0.00011600469281192038, "5821": -3.0164269245099993e-06, "16840": -2.471551030958419e-06, "6175": 0.00037506051866588046, "383": -2.9189585103402697e-05, "7099": 0.00016198617420731974, "2576": -1.4371724821282864e-06, "5766": -3.8854732051575875e-06, "349": -6.676218046012105e-06, "3160": -6.755392126521602e-06, "15405": 2.7639594355784062e-05, "16825": -1.0856777140716468e-06, "6960": 0.0005731185595352497, "1616": 0.00029297616546714077, "9703": -4.710033586498812e-07, "7653": -6.289781622618175e-06, "1082": 0.0003116289084412338, "15616": 8.125656725522304e-05, "4652": -1.0594499758794331e-06, "16798": -4.390731062170232e-06, "7219": -4.41634186461201e-06, "7010": -3.475165340034499e-06, "6743": -4.544764948540322e-06, "14365": -9.523074445596504e-07, "7844": -2.0501410432723694e-06, "8079": -3.391954872019914e-06, "3463": 0.0004880815177503928, "1354": 7.121933822919957e-05, "17723": -3.5653586541874924e-06, "15582": 0.0013747337490624086, "10584": -3.8276631480006704e-07, "8010": -4.774837785691865e-07, "2597": -1.3365658994136978e-06, "9619": -3.1253666320276356e-06, "641": 0.0005347426503542256, "18065": -3.076155820324618e-06, "4910": -5.984003037707878e-06, "7981": -1.1041605243488782e-06, "6854": 0.00027897431301275637, "2143": -7.654358082138302e-06, "4672": -4.7022485680640235e-06, "14352": -1.0715248387493445e-05, "1944": -5.973174360538662e-06, "2530": -2.638159229080017e-06, "4712": -5.931847956668716e-06, "15836": -1.4239605581910666e-06, "7817": -1.178089519091008e-05, "13904": -1.3057712186248651e-06, "6686": 9.504121480424015e-05, "1504": -3.4371515662469213e-06, "6694": 0.00019866606060898047, "1477": -4.173211858563555e-06, "9332": -1.550211754701021e-05, "4684": -2.8517452936211026e-06, "15378": -3.2973151788474153e-06, "2643": -1.6247943271367657e-06, "12268": -4.145851537603965e-06, "7808": 